35 10 6 5 5
0.140782 0.376807 -0.347311 -0.192554 -0.100277 0.254409 0.339353 0.335809 -0.198809 0.402750 0.588131 -0.499454 0.295341 -0.040659 0.124279 0.001425 0.040602 0.006057 -0.271035 -0.083445 0.121910 0.494508 -0.336450 0.804913 0.634075 0.105833 -0.380374 0.834350 -0.281835 0.653100 0.017006 0.350576 0.959080 -0.018993 0.168299 
-0.017289 -0.443585 0.006934 0.024470 0.526606 0.802935 -0.112445 0.139764 -0.724248 0.063284 -0.623111 0.036955 -0.205210 0.036055 0.383136 -0.181061 0.056087 0.125766 0.313331 -0.666843 0.119676 -0.007786 0.165962 0.268176 -0.523360 0.195536 -0.159646 0.030174 0.331955 0.282395 0.449306 0.290959 -0.151358 -0.631486 0.449752 
0.735834 0.460267 -0.842576 0.620319 -0.158213 0.572856 -0.013073 0.120224 0.294390 -0.216563 0.172912 0.222838 0.661241 0.227679 0.282918 -0.208590 0.729662 0.048393 -0.249461 -0.207608 0.358815 -0.232372 -0.255226 0.421591 -0.017015 0.337828 -0.259952 0.643683 0.068423 0.450309 -0.346392 0.023129 0.643131 0.209819 -0.808867 
-0.198121 -0.039266 -0.020671 -0.704889 0.005476 0.475085 -0.123585 0.338745 -0.194396 0.343342 -0.534457 -0.276674 0.373501 -0.986431 -0.818684 -0.390291 -0.776171 0.216228 -0.109608 0.851064 -0.310140 0.201329 -0.636922 -0.211799 0.402542 -0.132116 -0.014806 -0.407712 -0.123895 -0.175364 -0.297342 -0.637928 -0.446694 -0.594235 -0.157515 
-0.075430 0.234569 0.002293 0.354343 -0.207208 0.232843 -0.210882 -0.172064 0.749278 -0.198690 -0.011927 0.509163 -0.323083 0.274990 -0.203314 0.257716 -0.330454 0.328995 -0.134036 0.696024 0.296268 -0.152481 -0.361137 -0.006129 -0.608156 0.066743 -0.000570 0.086361 0.503625 -0.519322 -0.452396 0.212391 0.161782 -0.329481 0.197372 
-0.675041 -0.121359 0.524395 -0.141308 -0.104968 -0.278571 -0.071391 0.259080 0.698616 -0.035309 0.033889 0.124129 0.162268 -0.503324 -0.525495 -0.318641 -0.031406 0.008411 -0.366428 -0.444918 0.254484 0.017300 -0.082047 0.549877 0.182886 -0.052414 -0.067026 0.352394 0.459077 0.712282 -0.180805 -0.028452 0.339023 0.269999 0.293405 
0.036286 0.300448 0.720393 -0.454945 1.142830 -0.058718 -0.663533 0.014552 0.034470 0.214897 -0.074720 0.386933 -0.367120 -0.293849 0.936792 -0.190963 0.170008 -0.125697 -0.283547 0.436160 0.383540 -0.013878 -0.172405 0.251104 0.284210 0.290778 -0.093715 0.139941 0.190265 -0.282324 -0.013141 -0.221486 -0.741123 0.161148 0.961735 
-0.203733 0.177201 0.189749 0.227902 -0.386659 -0.718110 0.897219 0.473345 -0.046463 -0.223033 -0.074560 0.211504 0.023928 -0.026928 -0.198271 0.109484 -0.581118 -0.127397 -0.349755 -0.668519 -0.241049 -0.137026 0.177609 0.012605 -0.092471 0.689261 0.192637 0.004478 0.170347 -0.467918 -0.329310 0.268759 0.606939 -0.256493 -0.581732 
-0.267176 -0.154887 -0.180094 0.087145 0.777587 0.377354 -0.081823 0.435998 0.135523 0.165495 0.404024 -0.871024 -0.035174 0.154946 0.334582 -0.085948 -0.733280 -0.140692 0.324855 -0.127975 -0.130308 0.334572 -0.237312 -0.210646 -0.249018 -0.038916 -0.487402 -0.245199 -0.384484 -0.169527 0.492460 1.021858 -0.150349 -0.001369 0.174197 
0.494581 0.120412 -0.147895 -0.061784 -0.646583 1.256624 0.119439 0.200658 0.024667 -0.346821 0.038794 -0.516816 0.678681 -0.523917 0.446981 -0.604383 0.048911 -0.849305 -0.226610 -0.021815 0.128563 0.639479 0.494833 0.154547 0.148306 0.399992 0.976958 0.063924 -0.284609 0.436605 0.159057 0.810820 0.755927 0.596029 0.566671 

0.698344 -0.232708 0.143559 0.373778 -0.052892 0.028317 -0.639346 -0.125001 0.395806 0.203004 
-0.245892 -0.722553 0.916870 -0.040005 0.136737 -0.389683 0.460844 -0.141955 -0.309023 0.559471 
0.218143 0.213085 0.582876 0.349051 -0.142168 -0.474107 -0.034907 0.053892 0.017897 -0.425469 
0.230683 -0.084507 -0.763860 -1.036851 0.025690 0.065378 0.278882 -0.419872 0.382163 -0.345041 
-0.381096 0.631344 -0.073036 0.546219 -0.226853 -0.308111 0.728635 0.777795 0.206861 -0.721956 
0.452047 -0.272778 0.556835 -0.298771 -0.078946 -0.790638 -0.667572 0.529693 0.397559 -0.332379 

0.576157 0.413577 -0.621398 0.091340 0.210181 0.726809 
-0.974063 -0.634651 -0.473408 -0.401454 -0.246201 0.405967 
-0.182281 -0.543277 -0.759587 0.368253 0.358487 -0.321244 
-0.228790 -0.556078 -0.632081 0.586869 0.304356 -0.296555 
-0.124102 -0.390885 -0.791132 -0.018795 0.067742 -0.605986 

-0.024509 -0.035862 0.837622 0.280694 0.197173 
-0.328840 0.275033 0.416643 0.334745 0.182636 
0.137159 -0.062918 0.011317 -0.671792 -0.415793 
0.201952 0.024619 -0.193798 -0.608287 -0.347560 
-0.040805 0.508058 0.019688 -0.378997 -0.702261 
