35 10 10 10 5
-0.338153 -0.418003 -0.154903 -0.490778 -0.331450 -0.775010 -0.584641 0.742732 0.205453 0.370621 0.197187 0.176056 -0.098746 1.036758 0.222815 0.397624 0.465954 -0.670285 -0.493907 0.184925 0.881573 0.277263 0.505447 0.892664 -0.325879 0.355286 0.795295 -0.142680 -0.189882 -0.116807 0.047264 0.059308 0.660522 -0.522692 0.598567 
-0.998045 -0.344280 0.443409 1.013487 0.415708 -0.230510 0.810179 0.296734 0.173749 0.464069 0.315045 -0.017203 0.216604 -0.790231 0.383349 -0.876085 -0.430781 0.596859 0.687968 0.478123 -0.093405 0.286483 0.955460 0.987914 -0.677142 0.671118 0.025769 -0.676029 -0.542187 0.725255 0.492767 0.134861 0.166374 0.376056 0.412696 
0.003982 0.687220 0.425556 0.926246 -0.324103 0.014994 -0.431659 -0.410533 -0.174720 -0.763990 -0.950631 -0.864198 0.162498 0.320222 -0.529003 0.024764 -0.063955 0.421839 -0.637817 0.211127 0.651958 -0.360043 -0.050311 -0.363347 -0.576941 -0.598414 -0.097122 0.844624 -0.800908 0.369054 -0.590389 -0.314046 0.407314 0.485526 0.010218 
-0.057024 0.361973 -0.758297 0.441201 -0.781445 1.128242 0.899548 -0.095464 -0.497536 -0.795938 -0.243702 0.170646 0.196182 0.253044 -0.231874 0.196168 0.969896 0.194086 -0.051261 0.626167 -0.439823 -0.248791 -0.364646 0.215595 0.213684 0.061921 -0.500315 -0.192165 0.587619 -0.448115 -1.081645 -0.415116 0.508686 0.187338 -0.402323 
0.114951 -0.020196 -0.299611 -1.061922 -0.057756 -0.122624 -0.389711 0.584700 0.731329 0.737541 0.106047 -0.430845 -0.090061 0.612914 0.412022 0.595046 -0.137865 0.408775 -0.752375 0.225897 -0.013063 0.325476 0.491454 -0.664461 -0.846713 -0.748430 -0.311950 -0.510217 -0.547680 0.542270 -0.341920 -0.526071 -0.016972 -0.111628 0.502928 
-0.314843 -0.114921 0.066760 -0.150044 0.355652 0.530872 -0.611460 0.017993 0.491899 0.116848 -0.083818 -0.083586 -0.937901 -0.109330 0.315514 -0.139619 -0.025814 -0.142965 0.346824 0.291548 -0.316727 0.975493 0.208295 0.391466 0.164177 0.194236 0.674550 0.420187 0.237447 -0.987217 0.226747 0.784491 -0.900029 0.560937 -0.121310 
-0.583926 0.597562 -0.226188 -0.505073 0.134861 0.226657 -1.047370 0.482855 0.861380 -0.705641 0.151684 0.256281 -0.262999 -0.475746 0.089389 0.469644 -0.795000 -0.299997 0.585866 -0.313746 -0.744358 -0.036533 0.821715 0.362229 -0.644897 -0.507041 -0.129675 -0.347316 0.761911 -0.977886 0.049861 -0.455954 -0.079866 -0.139689 0.971558 
0.467367 0.331726 0.056350 -0.100217 -0.442244 -0.901430 0.246087 0.437277 0.057510 0.685818 -0.508627 0.392781 -0.909322 0.433887 -0.007243 0.814938 0.233714 0.079690 -0.330016 -0.483433 0.347126 -0.132502 -0.149819 0.453392 0.127797 -0.053011 0.302991 0.662484 0.732868 0.375263 0.008200 -0.423060 -0.588393 0.044346 -0.020022 
-0.338644 0.492957 -0.260282 -0.427842 -0.510492 -0.596252 0.258481 0.110185 0.976434 0.590663 0.685988 0.180573 0.027975 0.468631 0.650386 0.440446 0.120341 -0.013438 0.565331 -0.167284 -0.546908 -0.639784 -0.996701 -0.038469 0.037681 -0.713890 0.304809 -0.345508 0.464488 -0.836392 0.365739 -0.573445 -0.124715 -0.500548 0.552448 
-0.112999 0.657571 -0.142299 0.127471 -0.183998 -0.306451 0.101071 0.121530 -0.037142 0.309758 -0.233427 -0.178905 0.710169 -0.098337 0.738750 -0.841399 -0.458105 0.849377 0.219065 0.548830 -0.692550 -0.197809 -0.425785 0.171217 -0.902637 0.445986 0.087233 -0.665051 0.197471 -0.168219 0.515199 -0.340355 0.567641 -0.021671 -0.635252 

-0.109284 -0.460767 0.117983 0.310459 0.113699 -0.015824 -0.004484 0.394073 -0.415325 0.040210 
-0.502721 0.075768 -0.231852 0.418359 -0.033604 0.133566 0.286790 0.224732 -0.978041 -0.186872 
0.667612 0.131912 -0.413720 0.245006 0.691982 -0.377338 0.765619 0.425127 0.189962 0.850166 
0.431965 -0.204360 0.317452 0.338520 -0.440615 -0.189452 -0.319767 -0.511684 -0.266025 0.444321 
-0.180341 -0.808343 0.673197 0.749926 -0.141522 -0.376745 0.389897 -0.359478 -0.528482 0.307390 
0.409748 -0.751052 -0.117157 0.178386 -0.018450 0.514279 -0.833976 -0.301077 -0.456167 -0.130868 
-0.097056 -0.525822 0.806518 0.156402 0.226966 -0.126246 -0.205932 0.061441 -0.509103 -0.119627 
-0.210515 0.562592 0.443347 -0.274061 0.004391 -0.031923 -0.953671 0.788910 -0.047023 -0.918854 
0.457383 0.606343 -0.186395 -0.328635 -0.422503 -0.872282 0.185026 -0.617885 0.602475 0.434842 
-0.308153 -0.140203 0.470394 0.682754 0.283612 0.461281 0.117328 0.230876 -0.117044 0.348633 

-0.519114 -0.816088 -0.554933 -0.372968 -0.848667 -0.718043 -0.214017 -0.554887 0.031549 -0.934829 
-0.898155 0.112136 -0.430762 -0.205358 0.510207 0.827403 -0.035537 0.581592 -0.268614 0.435096 
-0.450292 -0.572240 -0.524337 0.189713 0.300343 0.266510 -0.543881 0.622838 -0.556544 0.249114 
0.790860 -0.266386 -0.581103 0.355825 -0.249026 -0.981659 0.167298 -0.659288 0.224358 0.738221 
0.138133 0.052326 0.800018 0.300233 0.004122 -0.915730 0.687035 0.328371 0.366558 -0.054422 
-0.471664 0.168083 -0.546719 -0.181543 -0.327328 0.057519 0.970082 -1.123526 0.022039 0.150168 
-0.158328 -0.108893 -0.461174 -0.466733 0.227614 0.907121 -0.724010 -0.392911 0.089967 0.172762 
0.400866 -0.256418 0.773483 0.423049 0.679984 -0.143860 0.559722 -0.526599 -0.348792 0.444383 
-0.256042 -0.412165 0.532884 -0.350460 -0.571641 -0.288972 -0.222515 0.111942 0.239547 -0.696063 
0.394898 0.276887 0.261424 0.463848 0.458679 0.021309 0.436042 -0.284452 -0.233743 0.530490 

0.561749 -0.194483 0.418238 -0.255103 0.309404 0.112246 0.269472 -0.694578 0.295617 -0.239056 
0.761633 -0.049368 -0.122488 0.257919 -0.468528 0.186489 0.102653 -0.585252 0.681696 -0.692369 
-0.977078 0.055368 0.174438 0.345390 0.202637 -0.584067 0.444057 0.394198 0.027319 0.997772 
-0.634305 0.101472 -0.456597 -0.019272 -0.396040 -0.436357 -0.027609 0.583874 -0.060665 1.030865 
0.567566 0.327979 0.436271 0.001180 -0.861659 -0.738498 0.105428 0.575358 -0.498054 -0.717037 
