35 4 3 2 5
0.403998 0.683717 0.617882 -0.236912 0.579992 0.180608 0.344909 0.075518 -0.281714 0.379158 -0.667602 0.657047 0.006142 0.323735 0.318631 -0.393456 0.181730 0.065672 -0.248621 0.411427 -0.091761 0.895249 -0.522379 -0.946394 -0.151624 0.024661 -0.621968 0.201813 -0.375069 0.132220 -0.249657 0.754351 -0.287031 1.040675 -0.075898 
-0.411637 0.097006 -0.818679 0.126576 0.129944 -0.063970 0.534657 0.126960 0.041325 1.017022 -0.109914 -0.225209 0.953819 -0.672009 0.057324 0.347374 -1.097956 -0.328853 -0.062267 0.685256 -0.126377 0.434983 0.934110 0.858999 0.602993 -0.254188 0.413048 -0.031050 -0.576469 -0.316319 -0.550719 0.286896 0.130927 -0.302379 0.284202 
-0.948641 -0.331766 -0.063225 0.379539 0.674229 1.282968 -0.588378 0.525241 -0.274143 -0.222281 -0.339524 0.696552 -0.753414 -0.910831 0.603191 0.581534 -0.831709 -0.943779 -0.173627 0.166230 0.509573 0.747378 0.603299 -0.548165 0.241031 0.430186 0.564780 -0.273703 0.322877 -0.037870 -0.390012 -0.311561 -0.662747 0.151443 0.615044 
-0.324831 0.379810 0.825630 -0.156707 -0.434548 0.106947 0.080448 -0.062789 0.115136 -0.556130 0.100963 0.899058 -0.501161 0.404701 0.421896 -0.344680 -0.682246 -0.448225 -0.178261 0.360727 -0.002350 0.355732 0.393688 -0.070533 0.944589 -0.341279 -0.113222 -0.041892 0.459102 0.864639 0.651923 0.095295 0.695452 0.776419 -0.533302 

-1.029796 0.438261 -0.030725 -0.056316 
-0.323126 0.159367 -0.850469 -0.769637 
-0.729603 0.049240 -0.256589 -0.832552 

0.765462 -0.706715 -0.240973 
-0.487513 0.650465 0.000643 

0.798816 -0.401577 
0.390150 0.138855 
-0.725426 0.490464 
-0.850167 -0.591121 
0.590078 0.746047 
