35 3 2 1 5
0.598951 0.344392 -0.948444 -0.156956 0.883408 0.317879 0.292030 0.466417 -1.086521 -0.636436 0.506626 0.197843 0.796900 0.296643 -0.267274 0.055267 1.025251 0.476342 -1.049677 -0.142506 0.018045 -0.480484 -0.186304 0.236276 0.505352 0.143563 -0.840005 0.788786 -0.608975 -0.085521 0.072970 0.732342 -0.032584 0.546082 -0.481962 
0.054799 -0.109365 -0.395078 0.451647 0.234479 0.303336 1.143572 -0.885658 0.294088 -0.159613 0.193977 0.712373 -0.336341 0.023400 0.331680 -0.249852 0.059674 -0.359043 -0.660791 0.219660 0.044216 0.113694 0.887971 -0.447708 0.300694 0.380155 -0.886940 0.047058 0.663537 -0.470977 -0.035684 0.174431 -0.978411 -0.160031 -0.175069 
-0.552069 0.527594 -0.431228 0.533195 0.002812 0.522519 -0.721768 -0.119966 0.716421 -0.082685 -0.242623 -0.782007 0.382385 -1.234050 -0.052674 -0.628991 -0.187498 0.397906 0.093828 1.093338 -0.916591 -0.535693 -0.448363 0.530081 0.426477 0.367662 0.661357 0.046832 -1.039642 -0.972855 -0.357424 0.986096 1.020565 -0.574708 -0.747681 

-1.751583 -0.031959 -0.973854 
1.119142 0.061539 -0.051749 

-0.996921 0.902392 

-1.213218 
-0.690565 
1.287062 
-0.125459 
-0.022384 
