35 5 5 5 5
0.107539 -0.916537 1.036457 -0.304122 0.220712 -0.799060 0.421305 0.106370 0.322125 -0.694896 0.872770 0.036379 0.292519 1.212874 -0.443338 0.260724 -0.224568 -0.014294 1.109130 0.947158 -0.932895 0.209034 -0.141734 0.303989 -0.404608 -0.245301 1.041156 -0.130037 0.318816 0.696033 0.631407 -0.725751 0.063441 0.373983 -0.439081 
-0.899259 0.992352 0.029405 -0.552633 0.320856 -0.545889 -0.608525 0.583523 -0.617230 0.626733 -0.837183 -0.060240 0.336538 -0.606361 0.599916 -0.436032 -0.493850 0.220610 -0.618326 0.037310 1.072775 -0.171309 -1.312720 -0.650875 -0.254399 0.014576 -0.429767 0.714795 -0.576354 0.200673 -0.244718 0.133569 0.050950 0.844174 -0.239053 
-0.326652 0.528999 0.423989 0.387777 -0.635523 0.669655 0.495442 0.021760 0.633542 -0.328512 0.637002 -0.575220 -0.195014 0.740176 0.049458 -0.397408 -1.116475 -0.788698 -0.293997 0.307481 -0.247849 0.170662 -0.345454 -0.729799 -0.384757 -0.102215 -0.144308 0.794252 0.423012 -0.187630 -0.775548 0.246746 -0.715719 -0.107105 0.168722 
0.211197 -0.714738 -1.165979 -0.307825 0.481096 0.821515 0.060682 -0.242324 -0.569826 0.368879 0.527684 -1.233241 0.499196 -0.372510 0.479645 -0.052668 0.334716 -0.547208 -0.208274 0.011921 0.472467 -0.194252 0.028232 -0.501583 0.116931 0.681233 -0.357817 -0.148131 -0.330753 -0.052742 -0.675760 0.433803 -0.425834 -0.410648 -0.183924 
0.100557 -0.797332 0.704348 -0.001199 -0.684185 -0.314298 0.250854 -0.452617 0.268146 0.329048 0.247393 -0.218557 0.805960 0.557717 -0.141486 -0.467612 0.415729 0.661230 -0.488369 0.430825 0.401732 -0.434715 -1.032353 -0.721823 0.200275 -0.512031 0.473532 0.600063 -0.538115 1.133196 -0.349007 0.610613 0.481286 0.843981 0.231382 

0.744642 0.417305 0.058061 0.754598 -0.067808 
1.125854 -0.548863 0.464284 -0.545166 0.615307 
-0.575095 0.197639 -0.410395 0.593195 0.319354 
-1.500215 0.143066 0.632440 0.146737 -0.119002 
-0.580107 -0.686286 -0.610880 0.325877 0.405354 

-0.151991 0.224883 -0.270411 -1.106825 0.123319 
-0.339353 0.397195 -0.241888 -1.094722 -0.858876 
-0.394812 0.483165 -0.181744 -0.586361 -0.666699 
-0.400375 0.585270 -0.195702 -0.905766 -1.250916 
-0.565814 -0.434313 -0.116107 1.175316 0.021619 

0.179801 1.141970 0.271470 1.045425 -0.551094 
0.446008 0.092524 0.694480 1.310308 0.381747 
-1.200691 -0.884118 -0.531274 -0.869997 0.074049 
0.303342 -0.639778 0.249893 -1.496510 -0.376273 
0.375789 -0.029878 0.411938 -0.461254 0.251249 
