35 10 5 5 5
0.830236 0.361724 -0.346545 0.100529 0.289540 0.134262 -0.336008 0.828449 0.289989 -0.134606 0.315339 0.432175 0.374638 -0.025989 -0.790040 0.417296 0.647822 -0.429530 -0.155787 -0.492917 0.635399 0.299438 -0.463062 -0.387889 -0.186030 -0.135607 -0.256940 0.695176 0.218233 -0.269480 0.085209 -0.241575 0.171191 -1.015702 -0.169330 
0.589981 0.367844 0.365619 0.034809 0.684077 -0.776597 0.153565 -0.030715 0.566102 0.442781 -1.217805 -0.905327 0.485306 -0.202395 -0.171365 -0.311208 0.297915 0.273155 -0.143915 0.050061 -0.297958 -0.609789 -0.169401 0.158757 -0.495956 0.244169 -0.142598 -0.130858 0.456335 -0.107529 -0.638862 0.306758 0.497961 -0.015160 0.116141 
-0.515739 -0.159399 0.136715 0.477101 0.603612 -0.266266 0.465366 -0.151288 -0.583046 0.194446 -0.098171 -0.316573 -0.107543 -0.084795 -0.392523 -0.510900 0.222660 1.420879 0.452695 0.302241 0.054326 0.908851 0.222077 -0.660403 -0.190058 0.336250 0.045384 -0.481514 0.381766 0.181030 0.433736 0.080329 -0.241965 0.105181 0.126662 
-0.001745 -0.567520 -0.374756 -0.828258 -0.402950 -0.710832 0.332990 0.232900 -0.058362 -0.414390 0.023028 0.155403 0.737536 -0.109821 -0.053051 0.928086 0.157733 0.046216 -0.310455 0.230263 -0.661903 0.803059 0.201596 -0.134651 0.439706 0.019397 -0.716978 -0.552586 -0.648393 0.496118 0.328707 -0.755007 -0.036125 0.066354 0.087759 
0.190937 -0.052043 -0.067394 0.003514 -0.057192 -0.608492 -0.026481 0.112732 0.283475 0.021203 0.206054 -0.186385 -0.006746 -0.067968 -0.263050 -0.225877 0.328352 0.042730 0.142539 -0.240838 -0.055996 0.201553 0.086728 0.021388 0.121334 0.236704 0.678747 -0.194711 -0.251050 0.166903 0.233960 -0.505560 -0.151934 0.022611 0.558067 
0.295859 -0.002085 -0.143124 0.462147 -0.028338 0.452023 -0.599437 -0.069151 -0.257486 0.513462 -0.295096 0.072673 -0.326200 -0.626865 -0.828206 -0.333650 -0.026877 -0.378143 0.286393 0.333530 -0.008550 -0.548645 -0.195610 -0.477769 0.118814 0.715627 0.738108 -0.079000 -0.258782 0.339461 0.221432 0.112630 0.651277 -0.352274 0.454419 
-0.092910 0.269375 0.139413 -0.147576 -0.758706 -0.122479 0.878854 -0.011541 0.878242 -0.610278 -0.809073 0.101901 0.755327 -0.312278 0.721122 -0.127037 0.107493 -0.430414 -0.389366 -0.284074 0.429349 -0.029156 0.093857 -0.060426 -0.302859 -0.675795 0.155566 -0.975458 0.321738 0.315467 0.189190 0.354870 0.627735 -0.414498 -0.761799 
-0.166733 -0.919421 -0.042068 0.679078 -0.174489 -0.080400 -0.588230 -0.043995 0.570812 0.743686 -0.365808 -0.146490 0.008554 -0.746440 0.220065 0.520951 -0.534556 0.905645 -0.455297 0.227886 -0.099739 0.368690 0.393217 -0.094430 -0.974259 -0.382479 0.414922 -0.123043 0.544454 0.966058 0.538068 0.308926 -0.295677 -0.033043 0.058484 
-1.069774 -0.153189 0.301662 -0.640072 -0.090325 -0.082530 -0.184129 -0.009516 -0.392542 -0.181313 0.541464 0.430299 0.452389 0.000050 -0.246899 -0.136200 0.068306 0.085607 0.348488 0.067661 -0.321065 0.778152 -0.421013 -0.086909 0.262450 -0.245855 -0.254467 -0.872339 0.382981 -0.466868 -0.163766 0.143352 -0.767206 -0.038396 0.702606 
-0.320961 0.593818 -0.021791 -0.315862 -0.135723 -0.140253 -0.301107 -0.319966 -0.071508 0.890519 0.196103 0.464880 0.761650 -0.512295 0.269127 -0.045742 -0.538983 0.349610 -0.555685 0.033009 -0.000255 0.067928 -0.010329 0.163463 -0.214086 -0.634431 0.465265 -0.368823 -0.584522 -0.854122 -0.082512 0.241482 -0.150915 -0.829552 0.983488 

0.050912 -0.133047 0.430554 0.481580 1.014974 -0.214454 -0.714755 -0.276418 -0.191699 -0.016760 
-0.395579 -0.408741 -0.258920 -0.297700 -0.056600 0.328070 -0.153577 0.549420 0.215567 -0.055734 
-0.065406 -0.268342 -0.126645 0.759028 -0.770056 0.107610 -0.356807 -0.088929 -0.813947 -0.542703 
0.723161 -0.198337 -0.516688 -0.413937 0.023652 -0.092617 0.964974 -0.710765 -0.348943 0.342190 
-0.383381 0.305185 -0.629143 0.463460 0.300836 -0.028082 0.763506 0.361653 -0.621962 0.096966 

0.703362 0.366961 -0.052759 -0.298969 0.252699 
0.115132 -0.965555 0.031590 0.466703 -0.244494 
0.327968 -0.186452 0.663233 -0.654233 -0.001853 
-0.101145 -0.578270 0.375381 0.134453 -0.369067 
-0.388456 0.552001 -0.568447 -1.126732 -0.048450 

0.513268 -0.671072 0.017410 0.522408 0.540780 
0.644649 -0.121969 0.019243 -0.416658 0.752793 
-0.577031 -0.218293 -0.098668 0.506391 -0.579512 
0.063756 0.442461 -0.329409 0.807014 -0.499189 
-0.193235 -0.190081 -0.266967 0.265952 -0.207897 
