35 15 9 5 5
0.549824 0.039173 0.762612 -0.364243 0.042197 -0.982513 -0.406279 -0.138543 0.176927 0.203871 0.548653 -0.316571 0.349572 -0.261063 -0.071537 -0.383441 0.404836 -0.398837 0.557962 -0.317224 -0.718211 -0.372746 -0.472371 -0.342880 -0.042361 -0.251441 0.757328 0.128046 0.651646 -0.659981 0.361917 -0.026334 -0.274562 0.163350 -0.248360 
-0.320134 -0.059721 -0.686690 -0.249294 -0.167836 0.064323 -0.041595 -0.464208 0.410744 -0.248603 -0.319029 0.288558 -0.285777 -0.159647 0.182005 -0.222383 0.168675 0.331215 -0.507284 0.268577 0.376268 0.297845 0.183503 0.236100 0.488988 0.328381 -0.152266 0.314730 0.010845 0.044338 -0.578553 -0.104395 0.379077 -0.363578 -0.243369 
0.637024 -0.206014 -0.336034 -0.252387 0.337928 -0.242925 0.560075 0.456136 0.427027 0.190930 -0.068079 -0.045676 0.327007 -0.108938 0.448369 -0.715596 -0.127994 -0.052005 0.892256 -0.520712 -0.179035 0.303672 -0.058734 0.086313 0.008339 0.300150 -0.083356 0.026788 0.226207 0.014719 -0.226511 0.281812 0.425156 0.034762 -0.337468 
0.098156 0.577107 0.049913 0.069069 -0.036547 0.635400 -0.572225 -0.973708 0.174966 -0.069273 0.048148 -0.004165 -0.419871 0.370801 -0.048344 -0.395150 -0.082345 -0.485098 -0.105557 -0.116180 0.861933 -0.721127 -0.141800 -0.030473 -0.135520 0.177531 -0.330121 -0.308279 -0.585499 0.004263 0.100919 -0.345047 0.042287 -0.249306 0.313347 
0.019633 0.219036 -0.071602 -0.157461 -0.297743 0.387554 0.414090 0.581583 -0.206059 -0.355945 -0.071305 0.015097 -0.542060 0.677582 0.205096 -0.411949 -0.360118 -0.066993 -0.162159 -0.232727 0.364097 0.408403 -0.409704 0.585933 0.009370 0.547827 -0.120409 -0.544080 0.465594 0.761647 -0.004211 -0.203372 -0.308343 0.391027 0.871556 
0.400085 -0.022384 0.301884 0.087166 0.264757 0.313530 -0.003371 0.086516 -0.183251 -0.627483 -0.863323 -0.341820 -0.317664 0.058253 -0.363163 -0.508433 0.043159 0.101055 -0.508406 -0.026640 0.499494 -0.517745 0.845698 -0.296780 -0.757237 0.120905 -0.550928 0.311938 0.501208 0.288922 0.324352 -0.362042 -0.928123 0.446399 -0.472687 
-0.069845 -0.263597 -0.335587 -0.409183 0.790491 0.090882 0.602325 0.204286 0.896023 0.344672 -0.886748 -0.822872 -0.089979 0.039380 0.517246 -0.653077 0.557037 0.844065 0.600152 -0.309039 -0.033079 -0.311425 -0.023853 0.197266 -0.689869 0.758655 -0.529978 0.543809 -0.135323 -0.856715 -0.343186 0.659911 -0.428946 -0.184840 -0.380093 
0.104332 -0.416062 0.381189 -0.632587 0.044461 0.233546 0.134584 -0.349810 -0.199823 0.567396 0.200862 -0.174597 0.395413 -0.075870 -0.429778 0.071631 -0.756615 -0.610545 0.339206 -0.753100 0.701116 -0.452816 0.041783 0.075113 0.206938 0.564727 -0.216386 -0.052689 0.416245 -0.185399 0.121641 0.395791 0.140881 0.311052 0.028911 
-0.146845 -0.561839 -0.099528 0.813224 0.554974 -0.263681 0.690493 -0.335388 0.443552 0.179025 -0.326438 -0.562899 -0.285369 -0.764532 0.258405 -0.500440 0.627279 -0.499842 0.096665 -0.276887 0.297699 0.359996 0.621441 -0.363575 0.032940 -0.475627 0.520281 0.348370 -0.004668 -0.544899 -0.526448 -0.276369 -0.420489 0.030531 -0.198072 
-0.614590 0.138755 0.373130 -0.230503 0.916343 -0.148066 -0.132648 0.036031 -0.069064 -0.327908 0.030459 0.428112 -0.735842 0.028148 0.838216 0.389289 -0.965180 0.057069 -0.640171 1.085487 -0.152238 0.085036 0.542564 0.287194 -0.064740 -0.728676 0.664331 -0.194361 -0.015974 0.141490 -0.239224 -0.808322 -0.837244 0.772313 0.206177 
-0.023560 -0.091477 -0.494561 -0.748275 0.644000 -0.815628 0.183414 -0.145426 0.290208 0.005089 0.164568 0.019619 -0.705078 -0.056517 0.405839 0.350592 -0.538007 0.584350 -0.023176 0.341613 0.320813 -0.278899 -0.023766 -0.382189 -0.627926 0.540930 -0.165836 -0.148418 0.547519 0.537504 0.365535 0.526358 0.084575 0.280367 0.282387 
0.135167 0.483645 -0.591833 0.409746 0.000420 -0.452666 -0.537795 0.462798 0.305132 -0.032192 -0.396038 -0.273471 0.913599 -0.552515 0.275265 0.314385 -0.556437 0.171847 1.001762 -0.156074 0.026319 0.438860 0.046787 -0.341121 -0.003735 -0.445917 -0.673727 0.072246 0.498552 0.145616 0.121933 -0.251187 -0.322114 0.123449 -0.391370 
-0.654483 0.292048 0.534147 -0.466812 0.031996 -0.082977 0.379570 0.526438 1.123238 0.094649 -0.407358 -0.944612 0.694116 0.533239 0.151779 0.500809 -0.942624 -0.672581 0.244234 0.445141 0.172585 0.108603 -0.324212 0.107165 0.106962 0.555642 0.329334 -0.501053 -0.059745 -0.607074 -0.426603 0.399936 0.241528 0.257256 0.613324 
-0.808569 -0.767811 -0.079973 -0.434952 -0.427206 -0.094821 -0.024898 0.613918 -0.222311 0.312027 0.838235 -0.372466 -0.781721 -0.049115 0.506316 0.407211 0.126424 0.393898 -0.404312 -0.352748 1.148304 -0.363706 -0.528575 0.229008 -0.560166 -0.205182 0.493530 -0.067589 0.474667 -0.227586 -0.405956 0.312970 -0.554535 -0.668835 -0.386057 
0.142522 0.193416 0.304635 -0.577028 0.138657 0.766355 0.156640 -0.526001 -0.099869 -0.644099 -0.261256 -0.038900 -0.013105 0.345273 -0.282005 0.135946 0.335022 0.174920 0.408352 -0.011345 0.581874 -0.065613 0.302615 -0.602881 -0.187863 -0.260512 -0.533802 0.233768 -1.035454 0.489576 0.836003 0.121566 0.728220 0.006406 -0.473048 

-0.327201 0.010768 -0.352613 0.217532 0.567387 -0.477610 0.120547 0.236577 0.592922 0.764411 -0.296993 -0.586977 0.363656 -0.220325 0.191146 
-0.357185 -0.147103 0.791931 0.305116 -0.032391 -0.287733 0.265725 0.919823 0.298540 0.147917 0.421135 0.344044 0.565776 -0.036789 -0.391954 
-0.637897 0.131622 0.315849 0.506894 -0.031649 -0.522559 0.039754 0.591673 0.222619 0.256805 0.560022 -0.111242 0.576055 -0.182245 -0.240471 
0.210830 -0.416300 0.372919 -0.565222 0.316074 -0.390573 -0.216524 -0.066665 0.533264 0.273783 0.095869 0.470548 -0.116986 0.143720 0.393812 
-0.353600 0.231506 -0.429683 -0.453112 0.616160 -0.295311 0.501843 0.145486 0.786153 0.327856 -0.232895 0.150967 0.785414 -0.295374 -0.092524 
-0.113888 -0.549317 0.445358 -0.047242 -0.015140 0.163622 0.273635 0.247527 0.196031 -0.666459 -0.027784 -0.913873 -0.325791 0.997091 0.201510 
-0.637498 -0.036695 -0.458255 -0.200365 0.464032 0.086476 -0.349226 -0.742330 0.158668 -0.263171 0.429232 0.181470 0.185211 0.328788 -0.862118 
-0.064776 -0.348689 0.065272 0.198821 0.082780 0.147299 0.436416 0.449808 0.289982 0.490672 -0.175195 -0.631252 0.002651 -0.619075 0.154110 
0.024098 -0.112381 0.345654 -0.146809 -0.444524 -0.156391 0.135932 -0.017823 0.365132 0.601956 0.031760 0.263968 1.000715 0.292124 -0.196785 

0.108125 -0.833008 -0.292941 -0.065529 -0.317978 0.012542 0.002706 0.041170 -0.114763 
0.433080 0.887576 0.916760 -0.315023 0.497779 -0.000065 -0.305802 0.204121 0.879088 
-0.157341 -0.649754 -0.162851 -0.188510 -0.342806 0.390273 -0.923804 0.022786 -0.485745 
-0.638823 -0.022174 -0.061626 -0.475967 -0.612058 0.138550 0.069285 0.457754 -0.846209 
-0.361977 0.357355 -0.316726 0.023312 0.367684 -0.039868 -0.473102 0.480013 -0.159711 

-0.063069 0.383307 -0.376962 -0.625671 0.118847 
-0.193479 0.456109 -0.313583 -0.527171 0.329881 
0.388228 -0.573036 -0.197981 0.975573 0.472794 
0.558006 -0.037742 0.173797 0.227561 0.384447 
-0.344753 0.082445 0.398149 0.734057 0.519235 
