5 30 10 3 5
0.011448 -0.503997 -0.077633 -0.453536 0.371798 
0.181237 -0.178744 -0.588836 0.574764 0.689971 
0.296548 -0.075641 0.683275 0.043157 -0.129184 
-0.036513 -1.188881 -0.473583 0.011521 -0.470980 
0.077909 -0.774272 0.610825 0.621467 -0.639697 
0.172201 -0.903171 0.121978 -0.641828 0.202468 
0.174727 0.511647 0.670448 -0.928571 0.305728 
0.468555 0.359587 0.103640 0.215178 0.407864 
0.082033 0.898443 -0.438182 0.054665 -0.226386 
-0.304731 0.345291 -0.587993 1.012562 0.464076 
0.712543 0.056428 0.862355 0.321487 0.314438 
0.456938 -0.624678 -0.010028 -0.115426 0.225638 
-0.767755 0.580850 -0.005052 -0.300831 0.817045 
1.104773 -0.184335 -0.447515 0.386594 0.039927 
0.958155 0.587483 -0.291686 -0.603642 0.721622 
0.186131 -0.092369 -0.447816 0.864752 0.010585 
0.727346 0.825442 -0.171409 0.837465 -0.458108 
0.144577 -0.489422 -0.112821 -0.366280 -0.836528 
0.509287 0.257506 -0.950379 -0.341031 0.190714 
-0.439460 -0.136744 -1.034189 0.551206 0.153626 
0.852826 -0.014580 0.090987 -0.287865 0.137709 
-0.366384 -0.410688 -0.252328 -0.610962 0.386563 
-0.147585 -1.109434 0.948410 -0.817371 0.558917 
0.084205 0.616025 0.722585 -0.541106 -0.330635 
-0.035274 -0.677999 -0.184493 0.439906 -0.619964 
-0.816347 0.003311 0.799997 0.343427 0.071625 
0.973452 -0.166033 -0.390309 0.389127 0.464934 
0.130983 0.414412 0.216161 -1.213290 0.345968 
-0.056307 -0.014896 -0.350913 0.022572 -0.258605 
-0.965587 -0.867929 -0.078516 0.899418 -0.365817 

0.159762 -0.562725 0.621996 -0.701213 0.680540 1.198420 -0.951802 -0.503334 0.743712 -0.727087 0.143784 0.473607 0.077422 -0.920735 0.628480 -0.837041 0.042307 -0.363981 0.922541 -0.821790 -0.204357 -0.614206 0.001622 -0.152410 0.472461 0.505914 0.590800 -0.908674 -0.123215 0.953814 
0.380803 -1.163409 -0.271485 -0.082851 -0.400267 0.110731 0.103262 0.920383 0.498975 -0.070800 -0.515148 0.590042 -0.387993 0.540947 0.746751 -0.419088 -0.652666 0.023121 -0.717432 -0.189751 0.357050 -0.465717 0.665840 0.423400 0.197752 -0.551516 0.503597 0.285744 0.845380 -0.752808 
0.358604 -0.669769 0.044740 0.129312 -0.670719 -0.161431 -1.058254 0.745072 0.952008 -0.364058 0.507343 0.538483 0.792217 -0.360072 0.701087 0.891033 -0.432979 -0.450698 0.860072 0.534405 -0.119839 -0.787010 -0.856452 0.725466 0.280653 -0.115375 -0.783346 -0.529831 0.196151 0.767022 
0.664429 -0.066109 0.735927 0.008925 0.301307 0.321437 0.538976 -0.451001 -0.537262 -0.685354 0.627549 -0.729579 0.441187 -0.685575 0.434376 0.178306 0.079820 0.407148 -0.052283 -0.129892 -0.130384 0.745899 -0.126126 0.220470 -0.085699 -0.682457 -1.008422 -0.203679 0.096517 0.019606 
-0.796465 -0.332041 0.280653 -0.578441 -0.049936 -0.042027 -0.373511 0.319131 1.193526 -0.771644 -0.215760 -0.363502 -0.439956 -0.154838 0.598614 0.155347 0.229052 0.036629 0.461582 -0.650036 0.414886 -0.126725 -0.208531 0.255536 0.267185 -0.170970 -0.200085 0.194529 -0.403363 0.150277 
0.018082 -0.247695 -0.015806 -0.611218 0.377078 0.031094 0.570140 -0.234672 0.272846 0.051076 0.456488 -0.067053 0.466428 0.585477 -0.492131 -0.376792 0.004723 0.220077 0.736965 -0.385086 -0.324837 0.437510 0.607560 -0.079535 0.795833 -0.017875 -0.897109 -0.264026 -0.682462 0.453630 
0.026589 0.261588 -0.559796 -0.115101 -0.423334 -0.120874 -0.766429 -0.376738 -0.525999 0.138880 -0.511818 -0.106668 -0.065506 0.229624 0.499449 0.276774 0.194293 0.317655 -0.145336 -0.214443 -0.329134 0.220469 -0.329582 -0.098307 0.080227 -0.583618 0.620798 -0.446644 1.286160 -0.523942 
-0.404703 -0.160134 0.133667 -0.264705 0.616856 0.408083 -0.688632 1.144367 -0.376267 -0.937132 0.391499 0.663829 -0.422729 -0.647789 -0.490820 0.827206 0.514082 0.191311 0.946813 -0.878244 -1.126021 0.008492 -0.287969 0.355023 -0.376584 -1.126806 -0.377129 0.085791 -0.101599 0.493036 
-0.108812 0.686266 0.748823 0.200612 0.507146 0.468311 0.551216 -0.549338 -0.019432 0.808016 0.724247 -0.765122 -0.055487 0.668816 -0.373138 -0.813107 0.356338 0.620066 0.383691 -0.781033 -0.477179 0.729849 -0.921088 -0.178563 -0.639550 -0.548131 -0.215106 -0.754491 0.012438 -0.032219 
-0.746371 0.545455 -0.369959 -0.351985 -0.388792 -1.038843 0.433535 -0.678591 -0.316640 -0.848503 -0.825479 0.387231 0.305254 0.142887 -0.416259 -0.026486 -0.759456 -0.807679 -1.168920 -0.578250 0.044265 -0.267632 -0.506562 -0.212948 0.390234 -0.713577 -0.216283 -0.280605 -0.706138 0.620080 

-0.818527 0.153263 0.726993 0.180031 0.018516 -0.803394 0.713165 -0.678669 0.945365 0.513398 
-0.738271 -0.093206 0.133405 -0.832636 0.942707 -0.413612 0.310823 -0.891030 0.706458 0.063634 
-0.729899 -0.406896 0.531595 -0.695358 0.273214 0.626165 -0.044686 0.159152 -0.587165 -0.655374 

0.400113 0.242081 0.848810 
0.121919 0.069007 0.229052 
0.419944 -0.506269 -0.736687 
-1.051588 0.086729 -0.002938 
0.151836 0.092829 -0.317870 
