5 30 10 2 5
0.334337 0.393937 -0.299504 -0.008399 -0.575121 
0.292073 -0.461402 0.085910 -0.576388 0.044702 
0.020895 -0.057277 -0.033351 -0.054635 0.062996 
0.609800 -0.559676 0.220720 0.508973 -0.323565 
0.547332 0.367541 0.087632 -0.024252 -0.715537 
-0.517418 -0.783226 -0.273429 0.521023 -0.490316 
0.234144 0.213468 -0.183676 0.706583 -0.771652 
0.682803 0.489157 0.554212 0.407812 0.425612 
-0.425506 -0.522751 -0.559300 -0.007589 0.326827 
0.370342 0.385307 -0.419620 0.646405 0.088449 
0.861655 0.235191 0.235830 -0.102330 -0.501265 
0.349111 0.354804 0.618082 -0.711056 0.246248 
0.652960 0.424325 0.458954 0.459903 -0.591993 
-0.783396 -0.325027 0.321948 0.419281 0.353595 
-0.153456 -0.024165 0.490413 0.407585 -0.510575 
-0.785998 0.304180 -0.369561 0.952250 0.706238 
-0.092612 -0.367022 -0.242575 0.736598 -0.201295 
0.092882 -1.061712 -0.945890 0.168725 0.106420 
0.057410 0.876734 0.639553 0.357835 0.424319 
0.507412 0.051730 0.587126 -0.047184 -0.525912 
-0.942100 0.122417 -0.406963 -0.297629 -0.015657 
-0.691969 0.377109 -0.146349 -0.259588 0.656703 
-0.204150 0.427282 -0.453259 -0.311925 -0.275317 
0.752491 0.027682 -0.861915 -0.099636 0.443292 
0.598809 -0.002896 0.677365 -0.803630 -0.272257 
0.101028 0.433207 -0.464143 0.240622 0.725344 
-0.658784 0.625510 -0.025326 -0.533737 0.297073 
0.252975 -0.744979 0.043587 0.578634 -0.390823 
-0.098977 0.649839 0.696466 -0.577033 -0.531166 
0.471218 0.284886 -0.348900 -0.777765 0.388075 

0.138486 0.246136 -0.243115 0.335163 -0.422771 -0.182554 -0.630235 0.003944 0.241641 0.080761 0.339719 -0.436298 -0.639636 0.177466 -0.313662 -0.309028 0.330390 -0.345976 -0.800315 0.059840 -0.085935 0.359487 0.432528 -0.321484 0.322831 0.610473 0.603840 -0.951532 0.522052 -0.453647 
0.104989 -0.135976 -0.836091 -0.566169 -0.111471 -1.051887 0.928548 -0.563720 -0.321010 -0.253741 0.052354 -0.230487 0.647402 0.419868 -0.227233 -0.288184 0.494082 0.114532 0.090525 -0.640199 -0.483234 -0.158691 0.596005 0.031680 0.124810 0.526331 -0.098314 -0.262311 0.486062 -0.171841 
-0.117124 -0.815516 -0.062708 0.709263 0.953844 -0.307032 -0.366774 -0.096073 0.265683 -0.141875 0.474699 -0.104119 0.313223 -0.029349 0.017110 0.484500 -0.024228 0.081485 -0.287026 0.131434 -0.469527 -0.683410 0.104369 0.204875 0.550374 0.819585 -0.005097 0.574177 -0.111924 -0.204354 
0.860372 0.692128 -0.104986 -0.618347 0.142116 0.551692 0.162204 -1.110795 0.302991 -0.552050 0.502962 -0.611316 0.864835 -0.196082 0.218356 0.069561 -0.051537 0.108969 0.145388 -0.173155 0.847442 -0.131976 0.574359 -0.933828 0.990587 0.464905 0.189143 -0.752439 0.845912 -0.312691 
-0.380178 0.528971 -0.993000 0.142589 -0.070785 -0.239153 0.282428 -0.390126 0.446454 -0.470133 0.041709 -0.455181 -0.349013 -0.184688 0.786137 0.492575 -0.346812 0.385273 0.614681 -0.057837 -0.075176 0.426505 -0.257831 -0.359877 0.098930 -0.399577 -0.856663 -0.241288 0.429474 -0.427316 
0.736665 0.109614 0.952177 0.443023 0.686980 -0.503657 0.161277 0.130087 0.031645 0.527681 0.575215 -0.271136 0.117551 -0.003678 -0.211849 -0.317797 0.253332 -0.414541 -0.144668 0.697271 0.376192 0.594882 0.572726 -0.421191 -0.428140 0.016881 0.198798 -0.296597 -0.234346 0.573021 
0.439775 0.313590 -0.090936 0.200687 0.944778 -0.221910 -0.408547 -0.605261 -0.973101 0.150508 -0.204183 0.285025 -0.640076 0.467593 -0.117979 0.561808 -0.875207 0.063209 -0.112687 0.164950 -0.029554 0.402132 -0.798521 0.299916 -0.126720 0.005212 0.443699 -0.233918 -0.263518 0.071800 
-0.305294 -0.371959 -0.298982 1.165946 0.953905 0.655578 0.379878 -0.218624 0.088971 -0.247733 -0.139139 0.156633 -0.570176 -0.125476 0.529007 0.009396 0.805894 -0.812345 0.678418 0.085822 0.370459 -0.728957 -0.408767 -0.478729 -0.768930 0.107855 -0.642010 -0.456028 0.209958 0.014261 
-0.454840 0.263863 1.019409 -0.112304 0.104040 0.425858 0.361014 -0.433879 0.658912 0.525103 -0.262344 -0.403714 0.498851 0.356020 -0.308268 -0.239519 0.301782 -0.169756 -0.572975 -0.604295 0.179616 0.492933 0.315222 0.346086 -0.141321 0.584213 0.488623 0.514491 -0.430961 -0.174062 
-0.117448 0.577140 0.130841 0.881565 -0.497313 -0.790528 0.909523 -0.330085 -0.298772 0.338877 0.310358 -0.026033 0.073302 0.043562 0.658938 -0.099132 0.193149 -0.396882 0.056378 0.321688 -0.611143 -0.023439 -0.491462 0.549143 0.178475 0.679684 0.294194 -0.146695 -0.466170 -0.738394 

-0.516279 -0.316276 -0.013169 -0.339168 0.228990 0.228737 -0.251570 0.171393 -0.093194 0.222441 
0.305942 -0.099356 -0.773592 0.436517 0.036624 0.386158 -0.307643 -0.813123 -0.407328 -0.162621 

-0.435522 0.448184 
-0.834856 0.471060 
0.169860 -0.901257 
-0.113448 -0.213143 
0.468021 0.344055 
