5 15 8 5 5
-0.748815 -0.267919 0.418040 -0.777071 -0.401057 
-0.449818 -0.773381 -0.129958 -0.404174 -0.122879 
-0.262830 -0.209694 -0.597877 -0.847127 0.202273 
-0.359433 -0.184593 -0.652930 -0.484016 0.858039 
-0.202024 0.730140 -0.422787 0.251040 0.022107 
-0.949824 -0.951134 -0.633412 0.264598 -0.581544 
-0.444584 0.863812 0.869554 -0.455755 -0.608939 
0.803441 -0.400887 -0.782135 -0.831135 0.228307 
-0.926292 -0.091174 0.110642 0.903051 -0.582477 
-0.785417 -0.970372 -0.342558 -0.487323 0.868409 
0.070190 -0.541144 -0.082927 -0.041567 -0.141418 
-0.490803 -0.653653 0.603592 -0.412384 -0.054819 
0.095313 -0.566731 0.724335 0.334138 -0.269107 
-0.416496 -0.315082 -0.219839 0.035674 0.591871 
-0.653550 -0.717806 -0.370641 -0.375522 -0.779936 

0.001981 -0.157267 -0.784155 -0.091648 -0.361593 -0.946370 -0.524817 0.327220 -0.220380 -0.678944 -0.945719 0.321387 0.772574 -0.240363 -0.352721 
0.587642 -0.779631 0.662122 -0.223633 0.573911 0.246024 -0.464817 0.245171 0.754208 -0.470023 0.535201 0.840998 0.070531 0.680270 -0.261972 
-0.277304 -0.161050 0.142987 -0.873325 -0.378967 -0.337750 -0.775157 -0.144105 -0.003571 0.038801 0.413241 0.381732 -0.278141 0.133498 0.320984 
0.699426 0.776444 0.360043 0.315174 -0.629918 0.478892 -0.199180 0.604333 1.248444 -0.499894 0.265105 0.595507 -0.768852 0.108351 -0.352037 
0.637323 -0.656929 -0.368350 -0.522440 0.044067 -0.253630 0.210383 0.664290 -0.035123 0.245102 -0.684156 0.758686 -0.051755 -0.620295 -0.237306 
0.065123 0.239402 0.664587 -0.228807 0.146043 -0.225835 -0.201029 -0.038426 0.171795 -0.283235 -0.349352 -0.392500 0.568359 -0.494534 0.735930 
-0.157994 -0.799909 -0.535379 -0.774472 -0.477880 -0.917988 -0.135925 -0.433924 -0.096792 0.149556 -0.360173 0.224089 -0.276201 0.248398 0.817225 
0.273767 0.245963 0.497386 -0.431721 0.553569 0.799423 0.209246 0.903995 0.700791 0.664547 -0.761298 0.268381 -0.545857 0.932087 0.039680 

-0.458522 0.527551 -0.498015 0.536990 0.088583 -0.669145 -0.617376 -0.782565 
0.761083 0.173586 -0.696990 0.282510 -0.393994 0.527055 -0.590285 0.416440 
-0.563902 -0.863799 0.358941 0.593701 -0.192230 -0.643831 0.224515 0.901862 
0.632554 0.749725 0.005645 -0.728863 0.392270 0.525520 0.477479 -0.635161 
-0.025700 -0.256763 0.157246 -0.951755 0.431620 0.579357 0.496687 0.897994 

0.922159 -0.971512 -0.458362 0.262090 -0.339777 
0.391598 -0.196669 -0.799461 0.991591 0.057497 
-0.141944 0.844052 0.724846 -0.117467 0.715471 
-0.840932 0.403450 0.554736 -0.793437 -0.412075 
-0.453321 0.334725 0.981814 0.790593 -0.027346 
