5 10 5 4 5
0.419519 0.535730 0.017320 0.066073 -0.838414 
0.715053 -0.733845 -0.587037 0.481131 0.335337 
-0.101929 -0.516058 0.700464 0.502870 0.191653 
-0.515649 -0.372853 -0.531161 -0.154006 0.727783 
-0.234643 1.066344 -0.591033 0.387105 0.165106 
-0.336277 0.777717 0.295734 0.704805 -0.246693 
-0.974030 0.776288 -0.378276 -0.368531 -0.078355 
0.654179 -0.021402 -0.478736 -0.534662 0.644218 
0.677878 -0.336899 -0.162549 -0.958937 -0.623640 
0.972166 0.132443 0.763859 0.335781 -0.000122 

0.244673 -0.252115 -0.501127 -0.340043 -0.686226 -0.129580 -0.238696 0.918416 0.612265 -0.956478 
0.741792 0.356372 -0.697426 -1.044540 0.272031 0.808413 0.799310 0.776159 -0.972672 0.056012 
0.855921 0.929167 0.219779 0.926839 0.293441 0.442025 0.248746 0.730208 -0.119884 0.460526 
0.522785 -0.269837 -0.527882 -0.968468 -0.435185 0.658708 -0.060043 0.704445 -0.557848 0.370933 
-0.280385 -0.176476 -0.320002 0.779675 0.406243 -0.226982 -0.087966 -0.066186 -0.395037 0.358319 

-0.500864 0.429073 -0.559249 0.394823 -0.354056 
0.238450 0.375079 0.670694 -0.674903 0.354279 
-0.223831 -0.659371 -0.314440 0.578381 -0.604229 
0.267730 0.412176 0.432013 -0.079580 -0.575207 

0.109778 -0.023357 -0.331002 0.643656 
0.707032 0.576922 -0.820866 0.284082 
0.053561 -0.167382 0.745023 -0.239902 
-0.637098 -0.106420 0.272331 -0.617301 
0.195202 0.566948 0.425314 -0.173634 
