5 20 5 2 5
0.195716 0.214344 -0.583523 0.476386 -0.295120 
0.398848 -0.564699 0.773983 0.757097 0.070012 
-0.429334 0.638761 -0.180862 0.755924 -0.581054 
-0.465325 0.327950 -0.119262 0.277909 -0.850108 
-0.353391 -1.009360 0.118022 -0.954483 0.631596 
0.058300 -0.588695 0.038961 0.192846 1.052336 
0.075073 -0.683383 -0.188030 -0.592866 -0.507964 
0.343138 0.259954 0.892117 -0.632741 -0.570796 
0.171392 0.596760 0.910378 -0.573709 0.190778 
-1.257116 0.959827 0.839215 -0.791020 0.946863 
0.636273 -0.268149 0.347204 -0.087623 0.633316 
0.208789 -0.059694 0.404896 1.004323 0.670893 
-0.813907 -0.492189 0.649541 -0.972896 -0.099387 
-0.259723 -0.268690 0.797539 -0.161310 -0.559869 
-0.544546 0.389287 0.445682 0.266332 0.817762 
-0.914535 -0.126218 0.757192 -0.080088 0.630970 
0.903862 0.515906 0.402905 0.413951 -0.122245 
0.074473 -0.691583 -0.187647 0.769500 0.349828 
0.093137 0.698106 -0.656821 1.088204 0.456997 
0.193796 -0.813803 0.818124 0.093369 -0.597771 

-0.450420 0.297719 0.997760 -0.890677 0.113253 -0.646482 -0.698352 0.484149 -0.425139 -0.790783 0.735994 -0.357774 0.792529 0.561746 0.933812 0.413510 -0.228233 0.286922 0.035356 0.181111 
0.623887 0.421594 -0.283016 -0.692094 0.248419 0.280378 0.753946 -0.044677 0.242628 -0.607449 0.252431 -0.636006 -0.927426 0.360626 -0.364970 -0.029548 0.861213 0.225788 -0.451844 0.498197 
-0.066390 0.395658 0.171109 -0.308252 0.867788 0.850535 0.617227 -0.196916 0.479128 0.456685 0.693523 0.162208 0.028542 -0.120045 -0.884684 -0.655802 0.241984 0.115790 0.475321 -0.889393 
-0.534204 -0.068131 0.154618 0.197258 -0.462500 0.412557 -0.793842 -0.534205 -0.488716 0.202577 0.975713 0.119224 0.776547 0.520183 -0.147610 -0.085894 -0.531432 -0.314545 0.417451 0.568179 
-0.210009 -0.501404 -0.475103 0.701036 0.196768 -0.302002 0.173778 0.162886 -0.871831 -0.590201 0.745255 0.359620 0.567495 0.063400 0.368392 0.116243 0.331734 0.778446 -0.253005 0.234014 

-0.704948 -0.195126 0.174045 -0.369432 -0.706073 
0.726309 -0.741588 -0.340710 0.124158 -0.501329 

0.888385 -0.209282 
0.573978 -0.220007 
-0.945170 -0.260761 
-0.172153 0.326856 
0.073120 0.087291 
