35 10 5 5 5
-0.479429 0.405872 -0.385828 0.264598 0.125473 -0.062376 0.026983 0.025173 0.171134 -0.115652 0.187859 -0.094531 -0.331976 0.260960 0.617713 0.317275 0.445225 -0.423072 -0.655663 -0.186385 0.059662 -0.565188 -0.274578 0.301152 0.070084 -0.460257 0.826015 0.309129 0.407687 -0.506758 -0.728415 0.443149 -0.176557 0.367589 0.050575 
0.252753 0.509030 0.196883 0.648107 -0.987565 -0.978901 0.004169 0.739553 -0.983106 -0.358301 -0.219972 0.145764 -0.120838 -0.207156 -0.187213 0.086296 -0.345757 0.390227 0.077891 0.024369 0.213206 -0.667985 0.647761 -0.441915 0.040009 0.047404 0.039430 -0.905721 0.636050 0.229417 0.712031 0.334763 0.293664 0.005928 -0.535135 
0.441349 0.438278 -0.774149 -0.606242 -0.378108 -0.295248 0.125771 0.083713 0.658954 -0.704598 -0.117974 0.539219 0.611198 0.140305 -0.057539 -0.105423 0.869284 -0.451335 -0.268776 0.384400 0.067905 0.282217 -0.309052 0.495710 0.139674 -0.328204 -0.310378 0.240783 0.003907 -0.298256 -0.296901 -0.165784 -0.012096 -0.305647 -0.562240 
-0.669005 -0.126169 -0.944041 1.223904 -0.356329 -0.641797 -0.439110 -0.098021 -0.576771 -0.161762 0.074405 0.249423 -0.239983 0.613311 -0.470595 0.159543 0.424678 -0.359194 -0.162131 -0.203134 0.210592 -0.220472 0.295968 0.039259 0.093803 0.533260 -0.044371 0.609936 -0.024916 -0.270377 -0.012671 -0.110058 -0.604856 -0.522748 0.372559 
0.650489 -0.051605 0.454274 -0.368037 -0.612996 -0.511524 -0.155138 0.201236 -0.551291 0.274722 -0.538226 0.105974 -0.554750 0.529515 0.413117 0.095624 0.156281 0.026759 -0.291865 0.002137 0.124236 -0.337752 -0.319346 0.415290 -0.678856 0.515737 0.482259 -0.192039 0.988586 0.740687 -0.061602 0.204010 0.230368 -0.287919 0.893572 
0.612441 -0.121832 -0.453752 -0.490474 -0.225909 0.090092 -0.258553 -0.136816 0.132002 0.708965 0.835091 0.844680 0.090493 0.428971 0.442753 0.510536 -0.159752 -0.297524 0.035745 0.065994 0.634735 -0.476928 -0.493613 -0.574435 0.177853 0.151542 0.752542 -0.154954 -0.569072 0.117477 0.430605 -0.196327 0.526335 -0.245223 0.382547 
0.172283 0.354211 -0.356538 -0.607257 0.188735 0.256461 -0.056294 -0.278780 -0.835802 0.122680 0.473719 0.204007 0.049476 -0.467984 -0.458788 0.705367 0.300511 0.172130 0.883690 0.379394 0.886737 -0.811356 -0.811806 -0.308451 0.510340 -0.213155 0.618530 -0.163088 0.583719 0.101416 -0.354612 -0.581603 0.156211 0.102979 -0.070439 
0.147978 0.847836 -0.096737 0.564341 0.363023 -0.804652 -0.256074 0.096157 0.490553 0.882099 -0.460657 0.615818 -0.314292 -0.103941 -0.588412 -0.598227 -0.975691 0.192079 0.393782 0.302066 -0.380851 -0.611649 0.662744 -0.560113 0.271802 0.695541 -0.227607 -0.119755 0.524891 0.405289 0.084214 0.191234 -0.081100 -0.032458 0.045407 
0.059370 0.093526 -0.753485 -0.460316 0.178479 0.354626 0.423607 -0.403593 -0.949205 0.172037 -0.309956 -0.640620 0.132770 -0.379323 -0.804893 0.545473 0.569310 0.585462 -0.355625 0.101308 0.744310 0.519867 0.288801 -0.301619 -0.111618 -0.504511 0.489649 0.218070 -0.462161 -0.914215 -0.088263 -0.058170 0.364540 -0.629316 -0.691008 
0.185967 0.877968 -0.094093 -0.524107 -0.171150 -0.398174 0.112241 0.240449 -0.359620 -0.331251 0.274680 0.440492 0.361238 -0.377959 0.237663 -0.290550 -0.062718 -0.663272 -0.335050 -0.789454 0.114148 -0.393299 0.324610 0.259434 0.009521 -0.064754 0.403005 0.962830 -0.315977 0.442455 -0.540990 1.055049 0.589036 0.445451 0.029401 

0.162231 0.457095 0.006509 -0.346489 0.284959 -0.526900 0.311256 -0.291417 -0.614080 -0.030173 
-0.305599 -0.040347 -0.701178 -0.556070 -0.018305 0.477454 0.185418 0.100885 -0.260899 -0.449374 
0.464066 0.141044 0.126683 -0.095525 -0.196108 0.924124 -0.209163 -0.306945 -0.299254 0.087217 
0.089284 -0.041511 0.679526 0.634521 -0.408498 0.157660 0.380166 -0.048781 -0.165939 0.723444 
-0.217186 -0.257036 -0.007713 0.059751 0.232616 -0.551619 0.200913 0.716534 0.478711 -0.464507 

-0.137317 -0.677812 0.046119 0.508493 0.007670 
0.530401 0.259516 -0.356930 -0.069724 -0.498212 
0.239031 -0.678998 0.374569 0.786472 -0.119220 
-0.982317 0.971677 -0.662542 -0.600158 -0.411273 
-0.061879 -0.450652 -0.307929 0.111374 -0.822877 

-0.353937 0.409272 -0.338958 0.515076 -0.441285 
-0.687371 0.357135 -0.162303 0.597766 -0.112201 
0.510338 -0.223575 0.160286 -0.556029 0.455471 
0.412624 -0.302625 0.641289 -0.491263 0.682185 
-0.067579 0.179888 0.478681 -0.532536 0.654370 
