35 5 5 5 5
-0.349806 0.328901 -0.774956 -0.005608 0.660802 -0.150671 0.121927 0.716586 0.127328 -0.267790 0.107225 0.375510 0.416918 -0.096054 0.487486 -0.270190 -0.351517 -0.752301 -0.659825 -0.790509 0.397743 -0.406494 -0.026336 0.842183 0.329214 0.097940 -0.411157 0.604151 0.080129 0.272645 -0.183534 -0.792390 0.169890 -0.245037 0.583146 
-0.253703 -0.137956 -0.469523 0.015339 0.287959 0.779884 -0.355368 0.697438 0.128175 0.402773 -0.149749 0.370873 -0.521999 0.462797 -0.601892 -0.611933 -0.664042 -0.038582 0.438061 -0.416727 -0.420641 0.527428 0.464638 -0.179561 0.246594 -0.497632 0.168261 0.993495 -0.645252 -0.048718 0.923598 0.644448 0.134643 -0.947101 0.346488 
-0.722030 -0.272855 0.097809 -0.008915 0.024633 0.378707 -0.054919 -0.687968 0.046281 0.565178 -0.020797 0.122973 0.781972 -0.927264 0.450150 -0.555343 -0.280657 -0.040038 -0.005664 -0.305531 0.733775 -0.053770 0.643345 0.070261 0.264574 0.577969 -0.266357 0.073642 0.208291 0.598183 -0.277295 -0.153026 -0.368837 1.007555 0.266241 
-0.390908 0.195464 0.065081 0.004700 0.585198 -0.195699 -0.367233 -0.631019 -0.147685 -0.934859 0.239972 1.063866 -0.332513 -0.029660 0.096852 -1.135020 0.009803 -0.479040 -0.128708 -0.090377 0.413213 -0.681807 0.178456 -1.049469 0.167196 0.366355 0.042988 0.043193 0.011851 -0.711936 0.471682 -0.824939 0.286617 0.245520 -0.286148 
0.204530 -1.012034 -0.300856 -0.664033 0.485969 -0.034894 -0.083213 -0.497120 0.088084 -0.217787 0.224067 -0.438597 -0.529564 0.124800 -0.269834 0.068999 -0.864319 -0.045334 -0.212970 -0.237005 -0.359734 0.288319 0.081995 0.398894 1.061804 -0.163304 -0.259966 0.461888 0.763908 0.283826 0.718773 -0.683818 0.156985 0.734395 0.331480 

0.122124 0.360310 -0.884648 -0.246183 -0.817999 
-0.032105 0.370765 0.209065 -0.783093 0.057624 
-1.021866 0.038648 -0.188066 0.782132 -0.033542 
0.659234 -0.636481 -0.669462 0.494755 0.432634 
-0.159294 0.324759 0.624054 0.342544 -0.633026 

0.483295 -0.377012 0.583892 0.447107 0.339463 
-0.551319 -0.105335 0.618699 -0.366637 -0.518190 
-1.122890 0.181548 -0.554731 -0.318050 0.485488 
1.001308 0.096162 -0.314100 0.599308 0.723325 
-1.155596 -0.584325 0.250157 -0.394560 -0.054127 

-0.223516 0.443602 -0.167852 -0.273060 0.821292 
0.574219 -0.040073 0.685189 -0.871890 0.686021 
-0.047661 -1.056111 -0.438078 0.552074 -0.504176 
0.137704 0.001539 -0.073827 0.438479 -0.058711 
0.345656 0.344672 -0.764210 -0.260420 -0.339554 
