35 10 10 10 5
0.362885 -0.957256 0.290793 -0.958992 -0.492586 0.864276 -0.788598 0.823852 -0.472317 0.825130 0.608590 0.289881 0.042262 0.974622 0.422926 0.890904 -0.896471 -0.950328 0.833927 -0.635854 0.174223 0.164707 0.801373 0.612319 0.112718 0.491566 -0.494911 0.809410 -0.847959 -0.397576 0.592603 0.218815 0.331562 0.393828 -0.925392 
0.640728 0.214944 -0.243886 -0.568340 0.990495 0.112651 -0.621350 -0.278136 0.037174 -0.685033 -0.938344 0.882988 0.186832 -0.089624 0.388638 -0.278873 0.386778 -0.448909 -0.546718 0.976131 -0.510579 -0.034925 0.938226 0.416459 -0.972402 -0.535448 0.237959 -0.925062 0.875805 0.481667 -0.819433 0.094631 0.971341 0.776883 -0.017756 
0.991762 -0.736973 -0.689511 -0.619157 -0.165237 -0.310996 -0.197626 -0.969956 -0.143840 -0.078155 0.418309 0.405360 -0.186563 0.557396 -0.384609 -0.893629 -0.195102 -0.119671 0.758285 -0.744555 -0.304772 0.560933 0.601171 -0.869960 -0.373179 -0.970303 0.695884 -0.042469 0.740135 0.221554 -0.743718 0.074332 0.815114 0.100127 0.704289 
-0.737374 0.206052 -0.592356 -0.921190 0.550737 -0.362204 -0.478063 0.561343 0.327291 -0.550212 0.385632 0.148575 -0.078921 0.218596 0.849556 0.119821 0.217052 0.235006 -0.520146 0.725498 0.912993 0.268649 0.011147 -0.306650 0.315169 -0.615395 0.486826 0.169485 0.806367 0.672311 0.546148 0.308115 0.240129 -0.018702 0.400530 
-0.622522 0.955482 -0.857562 0.643870 0.930122 0.481375 0.357981 -0.886312 -0.689891 0.287595 -0.143222 0.229950 0.101696 0.841214 0.649552 0.022587 0.954570 0.267321 0.467560 0.472145 -0.841564 0.520470 0.547464 -0.603306 -0.100186 -0.064538 0.690160 -0.241960 0.429218 0.507259 0.198100 0.829590 0.431032 0.154155 0.037163 
0.723418 0.307783 -0.905959 -0.974385 0.363559 0.730489 0.892730 -0.753810 -0.026185 0.718523 0.165677 0.752232 -0.039749 0.902107 -0.152755 -0.792386 0.340458 -0.118949 0.214263 0.911899 0.622739 0.621109 -0.720124 -0.922518 0.244371 0.594863 0.117870 -0.871682 0.778466 -0.875699 -0.795036 0.402770 -0.887804 -0.070585 -0.872260 
0.430577 -0.985158 -0.964231 -0.201714 -0.285372 -0.240610 0.486436 -0.130870 0.038523 -0.231844 0.077837 0.271079 0.815783 0.200456 -0.442188 -0.242440 -0.530061 -0.611191 -0.053760 0.182765 0.512385 -0.424429 -0.934103 -0.357685 0.376270 -0.155813 -0.972297 -0.948844 -0.742442 0.504413 -0.423015 0.138089 0.699352 -0.588093 -0.931624 
-0.168634 -0.582055 -0.232751 -0.999472 -0.191381 0.250047 -0.457694 0.437974 0.830678 0.152166 0.740574 -0.682847 -0.342432 0.199928 -0.938755 0.819730 -0.879986 0.046120 -0.139969 -0.568311 -0.595988 -0.970606 0.793486 0.845640 0.297538 -0.128441 0.268566 0.480958 0.642515 -0.481893 0.727732 0.937412 -0.053432 0.784062 -0.840660 
0.514855 -0.732313 -0.654935 -0.256486 0.510611 -0.179734 0.272677 0.802328 0.947794 0.338328 0.731193 -0.236768 -0.562840 -0.717251 -0.777447 -0.405881 -0.562052 0.665233 0.490380 -0.586580 0.443999 0.350836 0.354098 -0.125352 0.671403 -0.863222 -0.442135 0.773521 -0.367137 0.985836 -0.314653 0.635364 0.377658 0.060233 -0.665208 
-0.922203 -0.666919 0.786742 0.645397 -0.918565 0.877687 0.012229 -0.975726 0.898251 -0.865659 0.428516 -0.852992 0.336136 -0.165405 0.997067 0.384970 0.177028 0.985279 0.023066 0.222489 0.200688 -0.938925 -0.235577 0.291691 -0.248879 -0.919212 -0.294550 -0.949339 -0.981416 0.113082 -0.268855 0.252082 -0.607103 -0.690020 -0.956007 

0.121475 0.620937 0.856978 -0.730648 -0.163284 0.490389 -0.615724 0.066960 0.891717 -0.199764 
-0.412915 0.087979 0.571163 -0.475626 -0.831464 -0.055926 0.266350 -0.829353 0.177113 -0.963185 
0.490439 0.637918 -0.345447 -0.236867 0.528289 -0.009988 0.620650 -0.409020 0.636991 0.185584 
0.495951 -0.269893 0.182461 -0.580609 -0.674144 -0.823926 -0.392984 -0.025812 -0.536353 -0.922780 
0.963882 0.373614 -0.568929 0.606849 -0.769649 0.982659 -0.377473 -0.980641 -0.731108 -0.043601 
-0.848807 -0.619451 0.763338 0.039156 0.601415 0.721978 0.382468 0.438220 -0.493539 0.992947 
-0.780927 -0.010455 0.037372 -0.723408 -0.452244 0.237966 -0.746446 0.311786 0.836918 0.737153 
-0.843701 -0.021166 0.577846 -0.316682 -0.078756 0.020860 -0.668435 -0.139190 0.829011 0.391522 
-0.023381 0.464718 -0.784272 0.388015 0.130432 -0.872895 0.425315 0.846266 0.354294 -0.362544 
-0.251196 0.737797 0.881011 -0.568965 -0.601560 -0.373985 -0.918891 -0.780267 0.949791 -0.456594 

-0.829574 -0.482744 -0.026706 0.319123 -0.481795 0.397277 0.057746 -0.185320 0.039230 -0.942161 
-0.864463 0.630029 0.841130 -0.208374 0.234256 -0.650249 -0.283706 -0.637703 0.562195 0.318562 
0.607579 -0.500531 -0.479459 0.829754 0.144764 0.656528 -0.514384 0.779748 0.521002 0.699037 
0.624077 0.126105 -0.240137 0.120103 0.483489 0.165908 -0.198983 0.257478 0.395686 0.856201 
-0.444160 -0.935219 0.682897 0.930467 -0.803745 0.477232 -0.679663 0.250874 -0.234228 0.551681 
0.379745 -0.764206 -0.711975 0.852451 -0.370615 0.573562 0.040810 0.412755 -0.265559 0.797520 
0.710447 -0.844342 -0.720335 -0.034474 -0.085636 -0.122250 -0.204202 -0.273056 0.307299 0.923250 
-0.089877 0.003597 -0.821738 -0.845203 0.950476 0.611855 -0.197250 -0.360452 -0.433518 0.004053 
-0.855066 -0.759999 0.356266 0.117883 -0.361514 -0.680414 -0.792673 0.031718 0.009715 0.606555 
-0.493641 -0.812384 -0.490695 0.728787 -0.207822 0.851478 -0.567218 -0.215834 0.787507 -0.518193 

0.977317 -0.600643 -0.485263 -0.242312 0.131406 -0.595995 -0.540767 0.739272 0.272238 -0.833340 
0.643267 -0.202551 -0.485015 -0.661348 -0.373184 -0.808910 0.059091 -0.582937 0.413076 0.559761 
-0.225790 -0.829754 0.640368 0.813181 -0.618272 0.197778 0.600810 -0.041077 -0.181670 0.481143 
-0.880207 0.495716 0.552316 0.841617 -0.410952 -0.602895 0.450326 0.526188 -0.750295 -0.770902 
0.388626 0.990153 -0.121132 0.832329 -0.211282 0.295991 0.934648 0.689786 -0.277014 0.445279 
