35 3 2 1 5
0.230222 0.456349 -0.471353 -0.101441 -0.944492 0.079340 -0.847361 0.170160 0.035784 0.249810 0.607867 -0.384553 0.467951 0.154814 -0.181866 1.408496 0.939129 0.469426 1.033561 1.122039 -0.325467 -0.200375 2.065125 -0.784213 -0.925799 0.367019 -0.278431 -0.889725 -0.623343 -0.234980 0.106362 0.248497 -1.040347 -0.312603 1.143043 
0.354134 0.617893 0.428944 0.385282 0.082636 0.641399 0.087865 -0.716098 -1.000500 -0.777731 0.836100 -0.844672 0.629045 -0.608078 0.044943 -1.089189 0.111205 1.170157 0.214158 -0.369754 -0.720632 -0.004091 -0.167679 0.271099 0.839648 0.600801 -0.772393 0.312097 -0.162737 0.287912 1.022523 1.061426 0.120908 0.566351 -0.345560 
-0.042455 -0.072372 0.906622 0.395193 0.555849 0.522744 -1.004424 -0.252988 -0.310167 -0.328062 -0.627422 0.242784 -0.872806 0.041273 0.429725 0.821837 0.422383 -0.039858 0.619762 0.979674 -0.468618 0.163395 0.988256 0.339318 -0.257710 0.467804 0.911723 -0.259981 -0.182220 0.122117 0.356028 0.936493 -0.717972 0.975960 -0.414685 

0.737465 1.368680 -0.419878 
-0.073403 1.185153 -1.017025 

-0.949903 -1.131854 

1.334495 
0.267476 
-0.531094 
-1.281901 
-0.352473 
