35 5 5 5 5
-0.414035 -0.777313 -0.483693 0.260745 -0.984525 0.411208 0.197844 -0.212473 -0.407608 -0.445246 0.910512 -0.761035 -0.227816 -0.219804 0.146012 0.678141 0.038817 -0.036697 -0.750259 -0.016602 -0.192729 -0.278945 0.181562 0.843639 -0.380021 0.071445 0.796989 -0.678389 -0.176028 -0.865950 0.465279 -0.609526 -0.512525 0.031376 0.407498 
-0.284755 0.467519 0.576886 0.015048 0.289829 -0.103671 0.455549 0.154715 -0.099513 -0.289888 0.421379 -0.090989 -0.171028 -0.097097 0.851132 0.871392 0.564428 -0.152467 -0.154572 -0.510913 -0.194962 0.006061 0.066653 -0.043921 0.638121 0.509404 0.341153 1.530842 0.285556 0.773642 -0.767339 0.080836 0.297878 -0.677841 -0.690436 
-0.158890 0.166361 0.190764 -0.010056 0.015834 0.242030 0.000095 0.286138 0.062412 -0.256728 -0.910487 0.337512 0.076049 0.400698 -0.463363 0.646769 0.154655 -0.438691 0.333105 -0.005101 -0.211908 0.147055 -0.694876 -0.404940 -0.086810 -0.409704 -1.027372 1.206931 -0.605991 0.176217 -0.162756 -0.450224 -1.005101 0.966015 0.050461 
-0.250976 0.684312 -0.306575 0.291983 1.088553 -0.195010 -0.378801 0.312585 0.460831 -0.442501 -0.662478 0.170779 -0.703432 0.719830 0.136915 -0.019595 -0.656945 1.082661 0.883691 -0.318886 0.598159 -0.381372 -0.487468 -0.068034 -0.413419 0.931826 -0.809840 -0.376951 0.396467 0.164579 0.651742 0.553468 -0.255201 0.610026 0.130658 
-0.683275 0.769935 0.250400 -0.353402 -0.535741 0.108235 0.217972 -0.174388 -0.837395 -0.177922 0.503464 -0.062456 0.464063 -0.507900 0.357812 0.240275 -0.815030 -0.114066 -0.665985 0.530350 0.684760 -0.196346 0.787251 0.726137 0.252018 0.637351 -0.268224 -0.617691 0.342893 0.702121 -0.227064 0.623809 0.759372 -0.615301 0.426403 

0.108293 -1.125438 0.055510 -0.257707 -0.270599 
-0.310567 -0.793523 -0.581243 -0.128250 -0.554940 
-0.393394 0.273963 0.305121 0.268565 -0.336395 
0.230785 0.696698 0.466351 0.803581 0.661604 
-0.504307 0.254958 0.997022 -0.175410 -0.245456 

-1.204674 0.716112 0.542275 0.171032 -0.268309 
0.716883 0.524879 -1.063405 -0.165938 -0.361774 
-0.057548 -0.836627 0.018558 0.119395 0.778373 
-0.433927 0.051064 0.306801 -0.728326 0.348581 
0.227644 0.450354 0.225778 0.612489 -0.825091 

-1.193045 0.701608 -0.147837 0.918171 0.640045 
-0.549864 0.853555 -0.216240 0.101290 0.135368 
0.759951 -0.536437 0.851574 -0.161574 0.011225 
0.649447 0.249844 0.458645 -0.042417 0.108292 
0.018677 0.253367 0.660438 0.888766 -0.897209 
