35 10 5 5 5
-0.571568 -0.135548 0.255159 0.066084 0.248937 -0.173707 0.013160 0.177187 0.927482 -0.174336 0.277404 0.406488 0.978713 0.210372 -0.536925 0.434502 0.009207 0.191320 0.445010 -0.791496 0.598098 -0.293590 -0.520540 0.169940 0.316437 0.371145 -0.681050 0.477170 0.923880 0.191257 -0.539395 0.034663 -0.414421 -0.800753 1.218129 
-0.283803 0.262051 0.918065 0.747792 0.859718 -0.235060 0.595526 -0.301450 1.024590 -0.458152 0.191107 -0.029606 0.135363 -0.586220 0.483709 -0.360352 -0.005321 0.372142 -0.198760 -0.312795 -0.533511 -0.236806 0.646076 -0.146560 -0.736768 -0.184381 0.324206 -0.635064 0.417767 0.776520 -0.222153 -0.418213 -0.574065 -0.233915 0.031084 
-0.156976 0.087818 0.039999 -0.366315 -0.612705 0.030966 -0.013671 -0.096570 -1.039147 -0.225099 -0.083607 0.457107 0.262308 0.027250 -0.405883 1.043599 -1.065910 -0.421282 -0.803503 -0.138240 -0.004251 0.217315 0.489893 0.506279 0.239847 0.370116 -0.571873 0.108403 -0.905243 -0.661856 -0.427131 0.318428 -0.508609 -0.420457 -0.520863 
0.277664 -0.388481 0.112910 -0.138667 -0.179838 0.558149 0.672829 0.500708 -0.193982 -0.468559 -0.215705 -0.393956 0.781044 -0.268110 0.336376 -0.722672 0.082977 0.526702 -0.106568 0.087763 -0.591419 -0.337515 0.402334 -0.612504 0.211694 0.362537 0.061034 -0.067229 -0.235434 0.328391 0.407915 -0.233752 -0.221717 -0.161838 -0.709188 
-0.906105 -0.931064 0.518210 0.343836 0.017541 0.236825 -0.227717 -0.240120 0.151676 1.268239 0.249216 -0.071690 1.939643 -0.105151 -0.253771 0.027004 -0.179185 -0.801981 0.824921 -0.238136 -0.903389 0.698465 0.222364 1.018598 -0.676280 -0.389984 0.221876 -0.564076 0.025925 -0.176199 -0.435187 0.076521 -0.849641 0.801331 -0.208987 
-0.724745 0.039961 -0.478948 -1.036299 -0.286280 -0.507588 -0.019351 -0.149063 -0.194737 -0.517712 -0.409764 0.172662 -0.259993 1.127423 0.605460 0.656969 0.067807 0.414759 -0.491667 -0.366640 -0.675280 -0.672638 -0.291018 -0.648036 0.557162 -0.032571 0.369243 0.390224 0.045445 -0.500886 0.437058 -0.216228 0.240786 0.358181 0.374007 
0.421092 0.778768 0.495418 0.098466 -0.020657 0.299531 -0.448021 -0.561035 -0.198503 -0.582904 0.818038 -0.261040 -0.553553 -0.628828 0.137712 -0.062850 0.263250 -0.024642 0.164626 -0.492124 1.017243 -0.248889 -0.312946 0.236913 -0.214322 -0.502467 0.151613 0.903715 -0.017325 0.343061 -0.166367 0.502990 -0.857806 0.673463 -0.575112 
0.142786 -0.715483 -0.026179 -0.000243 0.060951 0.192154 0.632391 -0.067449 -0.225561 -0.305607 -0.223041 0.237443 0.112308 0.555433 0.068293 -0.440315 0.633579 -0.548522 0.363576 -0.152147 -0.246538 0.441696 0.704554 0.134066 0.416546 -0.277200 0.809287 -0.093722 -0.161683 -0.632892 -0.181810 -0.478295 -0.556769 0.985964 -0.056659 
-0.738871 0.455502 -0.740446 0.211068 -0.181432 0.743519 0.107932 -0.065043 -0.021419 0.198067 -0.070840 0.075429 0.436661 0.128867 0.443972 0.279751 -0.661777 0.458127 0.527148 0.859655 -0.457342 0.614071 0.154103 -0.240118 -0.741945 0.249190 0.009676 0.559564 -0.047752 0.751502 0.438750 -0.091465 0.144573 0.739867 0.955278 
-0.580959 -0.471951 0.126305 0.371536 0.066392 0.143698 -0.461508 0.498512 0.401529 -0.142769 -0.524880 -0.127478 -0.094432 0.134944 -0.264098 0.147136 -0.323986 0.225275 -0.710124 -0.357592 -0.500238 -0.081888 -1.094831 -0.871476 -0.916268 -0.948919 -1.005288 -1.291747 0.905006 -0.417364 -0.468215 -0.128791 -0.397334 0.031504 0.749026 

0.870211 0.692522 -0.812752 0.610056 -0.247124 -0.994792 0.518662 0.194240 -0.815977 0.184003 
-0.241210 -0.642942 -1.335103 0.653116 1.072733 -0.214144 -0.526145 -0.653388 0.694251 0.928472 
0.623275 -0.764511 0.513231 0.882330 -0.463361 -0.823828 -0.273683 -0.153692 -0.328869 -0.609119 
-0.175523 -0.945052 -0.470685 0.236770 -0.111913 0.327057 -0.493180 -1.178930 -0.018316 -0.566743 
0.058294 -0.476630 0.172548 0.257660 -0.558947 0.126192 0.736101 0.370557 -0.653602 -0.226085 

-0.389887 0.700542 -0.025329 -0.633563 -0.026333 
0.921702 -0.808127 -0.427546 -0.920154 0.040736 
-0.201388 0.045822 0.208009 0.903474 -0.073687 
-1.172571 0.872586 0.547296 0.630787 -0.432892 
-0.303539 0.043915 -0.191971 0.184204 0.581074 

0.843614 -0.383470 -0.136254 0.078507 -0.693891 
0.706829 0.480299 -0.267995 1.135596 -0.499525 
-0.811887 0.476603 1.283157 -1.199832 1.206743 
-0.798367 0.233398 0.343683 -0.474290 0.154484 
0.950413 0.615585 0.461620 0.847473 -0.354424 
