35 3 2 1 5
0.512968 0.300772 0.560178 -0.802685 0.687581 0.445301 -0.182913 0.994689 0.123485 0.483842 0.541755 0.659979 0.408511 -0.053284 0.278743 0.730429 -0.652925 0.937981 -0.320025 0.299641 -0.100884 0.114989 -0.746696 -0.575368 0.640315 0.437278 0.060278 -0.353883 0.860332 -0.636875 0.459304 -1.231412 0.390818 -0.904919 -0.324356 
-0.520424 -0.702138 -0.337989 0.199860 -0.921386 0.261437 -0.172084 0.273859 0.907211 0.066249 0.621780 -0.426433 0.153739 0.660165 0.929860 0.774211 0.091743 0.249538 -0.863850 0.485792 0.277738 -0.173602 0.043992 -0.333483 0.878094 0.400940 -0.355444 -0.656199 0.322578 0.314443 0.719744 0.218861 0.042592 -0.283679 0.332499 
-0.223039 0.281265 0.083456 0.585174 0.207659 0.338031 -0.659974 -0.420590 -0.238649 -0.200702 0.130361 -0.985499 -0.691993 0.569623 0.027268 0.117907 0.889938 0.626453 0.507610 -0.591871 0.761881 -0.872820 0.232112 -0.040870 1.051896 0.298162 0.851096 0.396595 0.670488 0.996572 -0.457823 -0.843524 0.787130 -0.732674 0.660225 

-0.794016 -0.310492 0.033106 
0.783625 0.132649 -0.036222 

-0.939443 0.765709 

0.687376 
1.089671 
-0.679906 
0.011058 
-0.317286 
