35 3 2 1 5
0.118918 0.530908 -0.291104 0.886138 -0.132755 -0.794992 -0.142176 0.033076 -0.638524 -0.308608 0.281057 -0.038003 0.239034 -0.063809 -0.483090 -0.711055 0.215642 0.654699 0.211310 -1.100827 -0.548982 -0.638718 -0.130374 -0.076559 0.837872 -0.152732 0.788698 0.272271 -0.988167 0.339604 -0.722641 0.619194 0.175732 0.176146 -0.388091 
-0.692226 -0.300696 0.662879 0.203572 -0.472982 -0.046932 -0.511536 -0.005151 -0.023006 -0.443614 -0.315974 0.110673 -0.167164 -0.954275 -0.978212 -0.912062 -0.639731 0.553368 0.808895 -0.683558 0.743522 0.200799 -0.811087 -0.991395 -0.449295 -0.038559 0.378773 -1.069713 0.219205 0.548705 0.428692 0.161349 -0.987729 -0.099099 -0.571839 
0.062559 -0.780227 0.197274 0.007353 0.171682 -0.252802 0.538790 0.132808 0.315281 0.519532 -0.645456 1.023055 0.255043 -0.418878 -0.590415 0.960303 -0.447636 0.641274 -0.631595 -0.293155 -1.080109 0.289449 -0.188920 0.098201 -0.348821 -0.891848 -0.052260 -0.714880 0.523392 -0.113893 0.569177 0.416814 0.101854 0.614347 -0.481606 

0.351350 -0.224943 -0.820624 
-0.916456 0.768078 0.915853 

0.926061 -0.785614 

-0.857553 
-0.739151 
-0.434333 
1.119423 
-0.369739 
