35 10 5 5 5
-0.025398 0.488316 -0.496058 0.594575 -0.376682 0.208358 0.234058 0.231159 -0.078394 0.361928 -0.321264 -0.999161 -0.594531 -0.330782 0.368379 -0.341729 -0.302781 0.147719 0.544607 -0.390650 0.531354 -0.366285 0.541221 0.980525 1.234869 0.988534 -0.254797 -0.567578 -0.093971 -0.319571 -0.277123 0.422475 0.788717 0.816348 -0.706602 
-0.253351 1.289661 0.527123 -0.450252 -0.247986 0.102066 0.676190 0.463377 -0.385490 -0.052843 -0.189442 -0.496718 -0.251142 0.729811 0.579025 -0.022851 -0.223319 0.017557 -0.325776 0.289596 -0.210080 0.046235 1.001621 0.144016 0.608149 -0.532263 -0.345810 -0.357859 0.680526 0.100497 0.004604 -0.723727 -0.567168 -0.162212 0.594038 
-0.780300 0.271870 0.113023 0.348489 -0.488196 0.004836 -0.428844 -0.541486 0.341657 -0.838719 -0.398667 -0.339078 -0.439068 1.162257 -1.145160 -1.029557 0.244444 -1.039202 -0.578511 -0.697343 -1.055832 -0.147709 0.061317 -0.678820 0.951354 -0.946808 0.504293 0.192225 -0.152147 0.577876 0.263838 0.207896 0.191695 -0.018668 -0.597311 
0.595606 0.303684 -0.418188 0.203323 -0.833960 -0.372519 0.489348 0.373982 -0.117867 -0.528706 0.662262 -0.838302 0.180218 0.590233 -0.472028 0.111598 0.882170 0.454204 0.947285 -0.798093 0.212815 0.564661 0.738495 0.413260 0.296299 0.489050 0.451771 0.023998 -0.295931 -0.917133 0.315377 0.078983 1.028700 0.578125 0.586077 
0.118499 -0.479262 0.409578 -0.925954 0.342827 0.021230 -0.475576 0.322931 0.185257 0.701721 -0.882839 -0.019585 -0.227850 -1.174532 -0.460171 0.308258 0.854215 -0.298221 -0.765353 -0.568739 0.722870 -0.780432 0.045706 0.027255 0.826166 -0.026743 -0.835865 0.273109 -0.739308 -0.006960 0.572134 -0.111424 -0.363843 0.308026 -0.670573 
-0.055605 0.134374 -0.287318 -0.557651 0.404610 0.594832 0.856844 -0.302386 0.087025 -0.539228 0.566853 -0.035482 0.472848 -0.753631 -0.084826 -0.886613 0.367884 0.768997 0.026136 -0.496769 0.950399 -0.504567 -0.050058 -0.574435 -0.811696 -0.126535 0.367999 0.692367 -0.226311 -0.046079 0.056833 0.295619 -0.221362 0.383522 0.474374 
0.420476 0.048923 0.836181 0.045595 0.893281 -0.905009 -0.563198 0.148204 0.145476 -0.613554 0.238912 0.588691 0.381803 0.714374 0.258915 -0.306548 -0.353140 0.186139 0.277031 -0.431002 -0.491772 -0.786163 -0.094576 0.600260 -0.089490 0.793217 0.344738 0.316117 -0.327769 -0.389897 0.234084 -0.220654 0.694327 0.694186 0.970938 
-0.434827 -0.816911 -0.721791 -0.070045 -0.379186 -0.017203 0.343328 0.323186 -0.874666 -0.990961 -0.405214 -0.063884 0.399464 -1.041148 -0.202206 -0.505614 -0.020512 0.832295 0.644053 0.562813 -0.028377 0.542173 -0.474407 -0.082735 0.076958 -0.509616 -0.057620 0.101963 -0.403700 -0.430390 0.504173 -0.448323 -0.105601 0.262178 -0.801918 
0.551743 -0.067039 -0.100389 0.388884 -0.007188 -0.138666 -0.047114 -0.246993 -0.084552 0.398348 -0.736840 -0.401764 0.547865 -0.429112 -0.282641 0.636996 0.465789 0.795902 -0.204847 -0.049901 0.708080 0.445761 -0.205915 0.655914 -0.516093 0.203637 0.659910 -0.071445 0.179394 0.039710 0.566855 -0.063435 -0.456566 -0.157404 0.851498 
-0.407680 -0.288362 -0.419881 -0.620329 0.403076 0.051922 -0.974016 -0.357154 0.440215 -0.604144 -0.306185 -0.249265 0.039299 0.398951 -0.722150 -0.133578 -0.684371 0.650576 0.300165 0.874482 0.903964 -0.331624 -0.154988 0.614202 0.021465 -0.324866 -0.462839 -1.196849 0.856330 0.776541 0.276201 -0.003088 0.132536 -0.036959 0.127792 

-0.439544 0.366848 -0.192560 -0.797585 -0.972996 0.118480 -0.040876 0.181599 0.340123 0.264433 
0.794858 0.100415 0.619976 1.170339 0.786451 0.398686 1.094758 0.550412 -0.314353 -0.614914 
0.170155 -0.075821 -0.755704 -0.749397 1.158894 -0.391578 -0.047551 0.142770 -0.419801 -0.633192 
0.411199 -0.400155 -0.048355 0.357723 -0.987923 0.035760 0.049854 0.643022 0.359971 0.741805 
0.038531 -0.357107 0.100023 0.200339 0.951020 0.644348 0.311176 -0.527834 -0.329357 -0.553636 

-0.108654 -0.277693 -0.019114 0.186365 0.920053 
0.682493 -0.495663 0.749865 -0.291606 0.185830 
0.839603 -0.338633 -0.206183 0.062623 -0.538464 
0.992307 -0.970349 0.761492 -0.371541 -0.087088 
-0.075730 -0.962791 -0.033515 -0.808508 -0.746124 

-0.935603 -0.321382 0.395071 -0.312314 1.170141 
-0.865941 0.409862 0.168122 -0.150402 0.248567 
0.422633 -0.534075 -0.735895 -1.005185 -0.083846 
0.934108 -0.478680 -0.673732 -0.018393 0.297104 
0.706902 -0.588940 -0.334068 0.740890 -0.364944 
