35 3 2 1 5
-1.246105 -0.363043 -1.309778 0.817646 -0.319753 0.402840 -0.940124 -0.662654 -0.089881 0.228832 0.789263 0.674907 0.009219 -0.225986 1.126627 -0.359574 -0.907536 -0.132700 -0.024432 -0.412679 0.705244 -1.031934 -0.160902 -0.098719 -1.081190 0.801771 0.072793 -1.199841 0.777481 -0.266318 -0.866297 0.448522 -1.195659 0.678605 0.025241 
-0.745558 0.321470 -0.834033 -0.158085 -0.239634 -1.162139 -0.627477 -0.873539 0.865318 -0.237295 0.740997 -0.695829 0.459973 -0.528714 0.275950 0.052913 0.086232 -0.300345 -0.188797 -0.539515 0.322110 0.407282 -0.153739 -0.124941 0.532026 0.564082 -0.393759 0.388727 -0.097945 -0.740464 0.174852 1.152916 -0.884937 0.667560 -0.844070 
-1.128349 -1.034181 -0.951734 0.777595 -0.019540 -0.474770 0.547743 -0.811710 -0.623434 -0.004306 0.746592 0.398347 -0.800608 0.407506 0.480267 -0.363796 -1.255479 0.580638 0.589796 0.479986 -1.390676 -0.032754 -0.125951 -0.252435 0.394108 -0.732023 -0.008633 0.667612 0.951660 -0.049539 0.043068 -0.241055 -1.246726 0.895890 0.600442 

-0.211813 -0.442808 0.509611 
0.052493 0.443455 0.878461 

-1.208618 -1.204847 

-0.629059 
-1.206398 
0.170731 
1.145327 
0.227069 
