35 10 5 5 5
-0.024630 0.164666 -0.760253 0.644842 0.061055 -0.252840 -0.807259 -0.982266 0.103541 0.286836 0.007515 0.660317 -0.185733 0.685625 -0.434086 -0.173269 0.671674 -0.494373 0.583714 -0.861017 -0.766682 0.018897 0.495385 0.024368 0.874577 -0.743094 0.340612 -0.106175 0.138615 0.409283 -0.112304 -0.402782 0.023634 0.036959 -0.403028 
0.811614 0.491036 -0.700450 -0.327168 0.052809 0.110618 0.870063 0.129288 -0.007376 1.056769 0.901350 0.060544 -0.145157 -0.773274 0.795488 0.515437 0.142826 0.806403 0.264403 -0.201450 -0.658681 -0.085259 0.724545 0.845074 0.241344 0.751936 -0.431314 -0.343107 -0.125287 -0.682205 -0.917919 -0.328669 -0.051905 0.026604 0.649545 
0.733779 -0.136025 0.135709 -0.038785 0.596219 -0.936482 -0.267064 -0.535527 0.257181 -0.402785 -0.564537 -0.519889 0.173742 0.506996 0.637981 0.225687 -0.223749 0.521756 0.833208 0.540122 1.027210 0.548105 0.249211 -0.986261 -0.031148 0.604624 0.849276 -0.016472 0.187555 -0.592818 -0.144654 -0.912140 -0.286610 0.295257 0.341263 
-0.077235 -0.108184 0.445646 0.779081 -0.788025 0.490065 -0.109928 0.591243 -0.096791 0.135145 -0.436735 -0.880134 0.274290 -0.297661 -0.396405 0.072894 -0.225571 -0.383053 0.579399 0.308047 -0.559055 0.311238 0.612830 -0.623112 0.563628 -0.716235 -0.176341 0.059398 0.598161 0.596380 0.218347 0.022161 0.429291 0.141155 -0.505023 
0.470315 -0.348526 0.084998 0.564999 -0.050517 -0.392115 0.175782 -0.050400 -0.027750 1.081633 -0.346442 0.425198 -0.742294 0.136427 -0.587131 -0.786892 -0.546153 -0.360228 0.646694 0.799072 -0.624711 -0.552893 0.504618 -0.101472 -0.094225 0.651615 0.789013 -0.697967 -0.334817 -0.061564 0.598858 -0.709959 0.895089 0.501673 -0.967152 
0.789031 -0.398998 -0.281556 0.583558 -0.338555 0.059355 -0.013393 0.213324 -0.858769 0.415309 -0.040240 -0.107539 -0.154745 -0.282559 -0.904021 -0.121984 0.797753 0.097137 0.462145 0.755898 -0.787564 -0.407199 -0.889863 -0.859715 -0.228662 -0.895140 0.272774 0.125473 -0.777140 0.213762 0.478327 0.758758 -0.391542 -0.985048 0.702707 
0.748579 -0.048958 -0.284168 -0.335008 0.247897 -0.622841 0.313144 -0.048253 0.081856 0.392207 -1.336252 0.533221 -0.288336 0.091235 0.956331 -0.268424 0.875920 -0.302421 -0.665610 0.161876 0.322961 0.996283 -0.349066 0.580145 -0.004728 -0.617189 1.040288 0.057928 0.822608 0.069528 -0.553304 -0.537098 -0.560915 0.447113 -0.132443 
0.275748 -0.636235 0.603165 -0.298497 0.078462 -0.087241 0.196970 -0.720509 0.793923 -0.700194 0.344203 0.987708 0.552366 -0.032045 0.554582 0.358376 -0.351523 0.441473 -0.516988 -0.648460 0.924393 -0.700114 0.113341 -0.503441 0.225899 -0.661968 -0.214177 -0.230943 -0.741484 0.425485 0.072863 -0.640833 0.223014 0.163748 0.473372 
0.123859 0.295047 0.056795 -0.504563 0.428880 -0.818729 0.441649 0.189348 -0.475718 0.127535 0.086247 -0.109160 1.336934 -0.438856 0.304389 -0.183738 0.004098 -0.624221 0.108104 0.210883 0.980562 0.397770 0.103324 -0.260552 -0.336252 -0.241456 0.166170 -0.537675 0.823078 0.262976 0.234752 0.144143 0.824560 -0.157054 0.142365 
-0.153918 0.946369 -0.198517 -0.476625 0.757568 -0.539335 0.220756 0.334524 0.846823 -0.770803 0.609573 -0.219400 0.166379 -0.357380 0.044994 -0.769201 0.067993 -0.250666 -0.240226 0.488476 -0.828080 -0.521958 0.902981 0.845908 0.032948 0.026766 -0.254518 -0.169265 -0.112327 -0.044183 -0.392704 0.557232 0.062990 -0.958019 0.152460 

0.580196 -0.668025 -0.236832 0.486267 -0.044579 -0.162020 0.056184 0.629148 0.189840 -0.695236 
-0.348773 0.431638 -0.959020 0.957341 0.123966 -0.571269 -0.276641 -0.045501 0.123247 0.770251 
-0.793040 0.215767 -0.735607 0.860456 0.307419 0.497011 -0.918327 0.162242 0.042117 -0.236718 
-0.634499 -0.218853 0.911000 -0.190352 0.639769 0.576447 -0.883057 -0.003117 -0.149903 -0.708427 
0.478052 -0.607119 0.026362 -0.038390 -0.176536 -0.119019 -0.827058 0.133497 0.252320 0.266729 

-1.183322 -0.119227 0.650844 -0.243803 0.278937 
-0.001158 -0.540159 0.267570 -0.179212 -0.763397 
0.207718 0.309330 -0.687807 1.122014 -0.821253 
-0.575443 0.751497 0.045065 0.248049 0.208808 
-0.022360 -1.112655 0.016226 0.142633 -0.483220 

-0.900093 -0.459278 -0.097362 -0.399176 -0.031937 
-0.130198 0.037223 -0.075992 -0.089403 0.293125 
0.378945 1.033540 -0.715372 0.527601 -0.491784 
0.388825 -0.672245 -0.401762 0.951911 -0.226846 
0.266131 -0.234261 -0.538771 -0.928995 -0.126602 
