35 3 2 1 5
-0.674565 0.052859 0.484655 -0.173581 0.235593 0.017948 -0.319004 -0.441380 -0.447342 -1.147279 -0.314248 0.426029 -0.032005 -0.353993 -0.806072 -0.175562 0.916723 -0.661075 0.756374 0.688947 0.174837 0.444275 -0.135007 0.546292 -0.710722 -0.545078 0.341706 0.390319 -0.533033 -0.078862 0.513085 -0.401896 0.098163 -0.607353 -0.677441 
-0.327163 1.276176 -1.362034 0.386286 -0.217610 -1.049071 0.918952 -0.408326 1.182830 0.307960 -0.723780 0.520259 -0.054707 -0.689845 -1.011733 -0.110777 0.011422 -0.955933 0.012800 -1.007090 -0.068500 -0.026206 0.196679 0.464550 0.096636 -1.043128 -0.549287 0.739743 -0.317984 0.432593 0.682048 0.764713 -0.507124 -0.791037 0.737520 
0.781309 -0.799732 -0.709834 -0.819632 -0.594582 0.145873 -0.793729 0.219921 -0.727704 0.546907 0.530839 0.583656 0.038282 0.067411 -0.583485 -0.096101 -0.872399 -0.991064 0.410806 -0.748805 -0.145808 -0.272317 -0.804233 0.070647 -0.448285 0.386546 0.078403 -0.491721 -0.884283 0.174531 -0.632250 0.607162 0.414446 -0.135257 0.243089 

0.048192 0.809929 0.252744 
-0.479194 1.004394 0.643772 

1.232934 0.654578 

-0.749899 
-0.276502 
1.059537 
0.507801 
0.325194 
